13 ||| eradicate ||| 0.0108743054543
con ||| keep ||| 0.0527366516589
fundamental ||| concept ||| 0.0963564490076
al ||| b5-0004 ||| 0.0227027932531
en ||| damage ||| 0.0189210685376
pan ||| sending ||| 0.0773699646878
decenios ||| brought ||| 0.012392176714
de ||| war ||| 0.0190931235819
es ||| merely ||| 0.015952639362
impuestos ||| teachers ||| 0.0838674992641
respecto ||| bear ||| 0.100203741118
para ||| whilst ||| 0.0101222791495
prodi ||| depending ||| 0.0174701405451
muchos ||| pursued ||| 0.0170736960841
deben ||| away ||| 0.0220603477346
dinamarca ||| acquis ||| 0.0210008650784
obra ||| plethora ||| 0.0119582398601
que ||| decisions ||| 0.0167897959622
a ||| actively ||| 0.0199265903634
tras ||| ordinary ||| 0.0206853413112
sociales ||| environmental ||| 0.0377400955238
activamente ||| democratically ||| 0.0515609799629
especulativo ||| profitability ||| 0.0443382146164
cartas ||| possibly ||| 0.02062698438
caso ||| accessible ||| 0.0832549387135
temprano- ||| led ||| 0.0340188568075
inmediato ||| so-called ||| 0.0541641362747
nos ||| n ||| 0.018250616567
pero ||| gibraltar ||| 0.0173142288845
ninguna ||| materialised ||| 0.0944623494541
la ||| private ||| 0.0105845852007
las ||| demands ||| 0.205217541747
un ||| we ||| 0.0305584388852
sin ||| legally ||| 0.0126041044382
continuamente ||| huge ||| 0.0189626175602
que ||| banking ||| 0.0221521888635
para ||| abductions ||| 0.017657495893
ctimas ||| solicitous ||| 0.0147595218381
detenci ||| criminalisation ||| 0.100407828738
pol ||| asylum ||| 0.0110690438504
ha ||| legislature ||| 0.0103054628615
trabajar ||| consultation ||| 0.0147231023202
del ||| around ||| 0.0104134932374
no ||| understandable ||| 0.0195545648733
ceder ||| delegating ||| 0.057190626261
correcta ||| suggested ||| 0.0436248155941
toma ||| actually ||| 0.0155794985674
act ||| non-governmental ||| 0.0135045626907
realidad ||| highly ||| 0.0673846591655
valor ||| courage ||| 0.121189179942
iv ||| wait ||| 0.0128406113397
comerciales ||| commercial ||| 0.197902082731
derecho ||| venture ||| 0.0117413420558
bando ||| opposite ||| 0.0264458630447
ante ||| meant ||| 0.113012697197
parlamento ||| consult ||| 0.020085286484
el ||| am ||| 0.0216459335904
especulativos ||| influx ||| 0.0560313636113
s ||| two ||| 0.0127142650759
de ||| vi ||| 0.0113183901021
sentido ||| moscow ||| 0.0623478970642
corolario ||| notable ||| 0.0212731092453
o ||| excessively ||| 0.0114808194013
efecto ||| came ||| 0.0463407341684
campo ||| covered ||| 0.0164181447032
parlamento ||| context ||| 0.0143206299752
una ||| again ||| 0.124100016045
de ||| effects ||| 0.117482383685
rep ||| directed ||| 0.0261986130713
de ||| cus ||| 0.0164792946119
a ||| side ||| 0.0214009481812
estriba ||| raft ||| 0.0630190301251
por ||| advocate ||| 0.0129130122285
es ||| gigantic ||| 0.0196639109995
campo ||| cottages ||| 0.0657319451329
reunificando ||| tended ||| 0.0683847718369
hab ||| did ||| 0.0492034565338
opinan ||| internationally ||| 0.0145396176843
examinado ||| professor ||| 0.0530577345384
cordero ||| beef ||| 0.0516758526103
de ||| situation ||| 0.0646518713965
me ||| heartily ||| 0.0475821538881
sr ||| former ||| 0.0151258677691
dicho ||| provisional ||| 0.0722634502451
sobre ||| approach ||| 0.0101690092982
avances ||| professional ||| 0.0506152401157
debemos ||| creation ||| 0.0159283747205
recientes ||| earthquakes ||| 0.0186029287359
sr ||| middle-of-the-road ||| 0.0285631477837
al ||| seixas ||| 0.0129393461351
iv ||| architect ||| 0.0793742603533
desarrollo ||| liaison ||| 0.0227676779833
este ||| minister ||| 0.0295465584114
nuestra ||| nature ||| 0.031015177445
capitales ||| exportation ||| 0.0289378731118
lugar ||| agency ||| 0.0103171361817
indisponibilidad ||| unwillingness ||| 0.0262238956409
fue ||| language ||| 0.0116836627764
concreto ||| supporting ||| 0.0525488293448
ticos ||| violate ||| 0.0810955925639
subyacentes ||| homelessness ||| 0.0125589924693
zona ||| 34 ||| 0.0116695571175
actitud ||| attitude ||| 0.236170733386
por ||| under ||| 0.033620024937
los ||| remember ||| 0.0157369518396
tanme ||| forgive ||| 0.0133275472112
comparamos ||| comparison ||| 0.0772573401373
no ||| combining ||| 0.013440584734
los ||| leaders ||| 0.0274856283527
fomento ||| imbalances ||| 0.0292254016907
centrar ||| afternoon ||| 0.0453768240307
como ||| tree ||| 0.21888286566
justificada ||| warning ||| 0.181921458414
-y ||| paid ||| 0.0221219157118
nuestros ||| putting ||| 0.0550115914017
actuaci ||| completely ||| 0.0117499666384
como ||| conferences ||| 0.0344265968584
inestabilidad ||| bubbles ||| 0.013478603164
tobin ||| renewed ||| 0.0113509462826
v ||| fraud ||| 0.0721513418595
de ||| conditions ||| 0.0128708370933
responder ||| minimum ||| 0.0474359812524
principio ||| minority ||| 0.0274207669694
a ||| strictly ||| 0.0216343053145
me ||| propose ||| 0.010067694913
desean ||| emigrate ||| 0.0706286852431
tanto ||| boost ||| 0.0221596937168
superar ||| yours ||| 0.0166368251659
n ||| mr ||| 0.0261246299671
esto ||| inefficient ||| 0.0687448903059
no ||| citizen ||| 0.0147335085461
uni ||| yours ||| 0.0324983678518
esta ||| none ||| 0.0566208951269
a ||| mr ||| 0.0466582662972
caso ||| portugal' ||| 0.0615964290965
lado ||| charters ||| 0.0346308951667
precisamente ||| pretty ||| 0.0140224090586
piensa ||| homophobia ||| 0.0661931110586
ven ||| opt ||| 0.0677694413078
hecho ||| suffers ||| 0.12686561602
empleos ||| posed ||| 0.0790283852248
hecha ||| zones ||| 0.0313742519495
el ||| kouchner ||| 0.0168984197788
cosa ||| deny ||| 0.0253950690001
tenerla ||| account ||| 0.0730993744174
solidaridad ||| neoliberal ||| 0.0148270514506
es ||| global ||| 0.0309386386251
todos ||| satisfy ||| 0.0104685123244
funcionan ||| flexibly ||| 0.121754623286
una ||| ireland ||| 0.039701288411
contamos ||| search ||| 0.0411473804908
igual ||| denmark ||| 0.0732650671428
hemos ||| wishing ||| 0.0121699103986
aprobadas ||| belgium ||| 0.0567088807231
tarde ||| thanks ||| 0.0588753594096
an ||| ecosystems ||| 0.0455137051269
m ||| aeroplane ||| 0.0101820804564
desean ||| sends ||| 0.0906030987355
plenamente ||| consists ||| 0.0358102702419
naturalmente ||| dimitrakopoulos ||| 0.0682392264371
aceptar ||| provisions ||| 0.0137058071727
reunimos ||| early ||| 0.0296646096822
suecia ||| denmark ||| 0.0214728941849
tanto ||| experienced ||| 0.0450317831342
rdidas ||| mistaken ||| 0.0157026969019
cuesti ||| fixture ||| 0.0332776952203
absolutamente ||| bolkestein' ||| 0.0874857054633
financieros ||| readily ||| 0.0619572286685
cosecha ||| gather ||| 0.0910931977516
plena ||| logic ||| 0.0328432331834
sus ||| controls ||| 0.0115221427599
ignorar ||| nearly ||| 0.0401761826058
a ||| later ||| 0.0217003996006
cubiertas ||| assisted ||| 0.0403118990291
mismos ||| purposes ||| 0.0244665704602
supervisi ||| regulations ||| 0.206156456156
s ||| generous ||| 0.0371101475395
una ||| attention ||| 0.0336966383444
grande ||| recapture ||| 0.0186875190364
suman ||| oppose ||| 0.0994931919133
16 ||| precautionary ||| 0.0245801070416
paso ||| step ||| 0.49960207918
a- ||| dangerous ||| 0.0131203649198
mantener ||| cases ||| 0.0457652186355
intensidad ||| earthquakes ||| 0.0111071850793
rigor ||| emigrate ||| 0.0660257210903
comunitarias ||| capacity ||| 0.0119302643441
querido ||| close ||| 0.0221984029132
totalmente ||| observance ||| 0.0901168516994
muy ||| generations ||| 0.0134019420139
inter ||| vi ||| 0.0385418131751
de ||| maltreatment ||| 0.039511804997
esto ||| handling ||| 0.0412597407192
me ||| seems ||| 0.0943026040163
viabilidad ||| sanctions ||| 0.0268208410092
y ||| conclusions ||| 0.0364849296774
cualquiera ||| colour ||| 0.0293229371094
introducci ||| coherently ||| 0.014013634422
sino ||| stability' ||| 0.0461890857993
al ||| at ||| 0.0289917268734
ltimo ||| speculations ||| 0.013005982507
amargas ||| experiences ||| 0.0201347572227
minuc ||| kfor ||| 0.0788148736678
aqu ||| break ||| 0.0159710375243
la ||| wto ||| 0.0139812591032
ee ||| japan ||| 0.154141878818
detenciones ||| killings ||| 0.0142998198635
tobin ||| tobin ||| 0.633052295087
han ||| composed ||| 0.0206342225152
la ||| does ||| 0.100762429499
clandestinas ||| roissy ||| 0.0782184723665
respuesta ||| written ||| 0.0414772371219
sobre ||| compatibility ||| 0.101838391494
tanto ||| secretariat ||| 0.032725393441
tambi ||| considerably ||| 0.0775319503887
desarrollando ||| inevitably ||| 0.018714478339
seguridad ||| employment ||| 0.0149637180292
permitan ||| denmark ||| 0.0466110950925
agr ||| adversely ||| 0.0365501624556
esta ||| this ||| 0.0647873988158
y ||| portrayed ||| 0.0135382967469
turnos ||| impose ||| 0.0187941370796
se ||| made ||| 0.102189240555
todo ||| globe ||| 0.0434364846792
por ||| amended ||| 0.0279275877472
dicho ||| akkuyu ||| 0.0168917157416
ni ||| wonder ||| 0.0908063651777
rurales ||| paid ||| 0.0195271569426
materia ||| movement ||| 0.0119695915746
destrucci ||| stresses ||| 0.0108897390155
hab ||| manage ||| 0.0201870277194
lo ||| apparatchiks ||| 0.027606613142
refiere ||| boost ||| 0.0414824998916
esta ||| demand ||| 0.0478341119233
gobierno ||| termed ||| 0.0646679506984
y ||| adversely ||| 0.0102821328996
a ||| may ||| 0.0102684275726
a ||| terr ||| 0.031742532846
poblaci ||| erratic ||| 0.0891872244845
fischler ||| contradictory ||| 0.163900337474
tr ||| rehabilitation ||| 0.0303202822117
nuclear ||| evidenced ||| 0.0163494264383
ajuste ||| imagine ||| 0.0699438954545
humanos ||| plans ||| 0.0131089576012
volc ||| unsuccessful ||| 0.0340129687047
vez ||| behalf ||| 0.0121931726063
buen ||| ensuring ||| 0.0109900403645
derechos ||| enemy ||| 0.0164083530413
procedimiento ||| undertake ||| 0.011029968823
sobre ||| iceland ||| 0.120813631617
tome ||| consideration ||| 0.0297021030713
cambio ||| attitude ||| 0.0845497307574
fuerza ||| statement ||| 0.0260631519876
sino ||| nationals ||| 0.0355577921549
casualidad ||| rare ||| 0.0549002964909
resonancia ||| debt ||| 0.0696580267529
europa ||| milestone ||| 0.0101887649702
prometido ||| promised ||| 0.0374907773508
primera ||| project ||| 0.0109283492056
necesidades ||| cooperating ||| 0.0158706770009
supuesto ||| share ||| 0.0253334597653
la ||| austria ||| 0.0113794164407
se ||| vez ||| 0.0182373060883
precisamente ||| lastly ||| 0.0331866689056
comisi ||| commission ||| 0.718923706784
pregunta ||| h-0788 ||| 0.0752928993393
sin ||| viability ||| 0.033715133133
dichas ||| predominant ||| 0.0386066336038
micos ||| opt ||| 0.0289705160889
cter ||| seminars ||| 0.0389835723127
un ||| proposed ||| 0.0936317047487
hecho ||| top ||| 0.0335313651171
informaci ||| laundering ||| 0.0509339846601
transferencia ||| strongly ||| 0.138237017076
-y ||| clearly ||| 0.0147711122128
futuro ||| obligations ||| 0.0555461667956
permitan ||| make-up ||| 0.0259660885425
algo ||| impracticable ||| 0.118353245047
se ||| public ||| 0.0155089825811
n ||| considered ||| 0.014808449165
entre ||| mercy ||| 0.0150315520172
repetir ||| intervention ||| 0.0533897616934
parece ||| patently ||| 0.0155503163381
contrato ||| amended ||| 0.0169917836061
propio ||| stability ||| 0.0101409485303
provoc ||| low-flying ||| 0.0413092283925
libertad ||| free ||| 0.0214266196258
avanzar ||| willing ||| 0.0131618243745
iniciar ||| film ||| 0.0826554110685
mercados ||| liable ||| 0.0507994961642
lograr ||| diplomats ||| 0.0494523431016
vulnere ||| violates ||| 0.0265055392515
m ||| demand ||| 0.0102230565704
n ||| 1244 ||| 0.020637501742
gigantescas ||| eight ||| 0.0626615423998
contravendr ||| extent ||| 0.0197021298434
zonas ||| cap ||| 0.0191302908907
el ||| fight ||| 0.171822268633
abordar ||| authorise ||| 0.0453048179391
sino ||| sake ||| 0.0683443737953
financiero ||| explicitly ||| 0.037640983726
y ||| equal ||| 0.0371118621132
problema ||| decides ||| 0.0494250994493
abuso ||| request ||| 0.0170983165306
tambi ||| courts ||| 0.0953452355139
industrializados ||| sufficient ||| 0.159171389915
asia ||| eea ||| 0.0339469958059
muertas ||| regardless ||| 0.0971047295575
transparencia ||| says ||| 0.0252995340109
n ||| it ||| 0.0529815458866
la ||| responsible ||| 0.0419167393119
simult ||| personally ||| 0.0125103801993
contestaci ||| call ||| 0.0298509920965
saber ||| feasible ||| 0.0125986007766
pues ||| henceforth ||| 0.0533165040737
personal ||| started ||| 0.0359708092119
va ||| pursue ||| 0.015675941323
referido ||| setting ||| 0.050922035962
no ||| non-albanian ||| 0.0275410909452
estriba ||| concluded ||| 0.0629901137202
pol ||| constitute ||| 0.0231359894117
aplican ||| standards ||| 0.0174324407913
fr ||| wonderful ||| 0.0661989308202
hundir ||| collapse ||| 0.0331369532546
verdes ||| pressures ||| 0.0376622377584
enormemente ||| zealand ||| 0.0425029801107
deber ||| perhaps ||| 0.139005621792
mundial ||| volume ||| 0.041369731433
volver ||| revive ||| 0.0113692013667
frica ||| cheap ||| 0.0344713258611
vez ||| limits ||| 0.0203983239837
aumentado ||| adequate ||| 0.0292461410116
fue ||| believes ||| 0.11269106341
adquisiciones ||| mergers ||| 0.0205335934739
importantes ||| establish ||| 0.0139164188637
estamos ||| unsuccessful ||| 0.0214909066479
algunos ||| civilian ||| 0.0263651362545
quiero ||| indeed ||| 0.028628967041
pa ||| dams ||| 0.0161013814779
as ||| futures ||| 0.0108507828318
tenemos ||| making ||| 0.0965614044593
del ||| paper ||| 0.0208616816122
hablado ||| complementary ||| 0.0512394653656
con ||| gain ||| 0.0110112768276
progresos ||| liberalisation ||| 0.0139266591942
ratificar ||| body ||| 0.0159095336126
cuesti ||| roam ||| 0.0197981963902
lee ||| aimed ||| 0.0244544373751
de ||| finance ||| 0.165588195751
cuenta ||| source ||| 0.055044014897
una ||| vi ||| 0.0451165692687
argumenta ||| objections ||| 0.0334181125837
haber ||| reached ||| 0.0354788041301
nico ||| religious ||| 0.027682644011
votaci ||| split ||| 0.11732274757
aumenta ||| effected ||| 0.0643098155048
especulativas ||| jeopardises ||| 0.0783126054073
adem ||| living ||| 0.0502788795322
menos ||| favourably ||| 0.0384776877838
equiparable ||| approximate ||| 0.0838344482107
finalmente ||| bandying ||| 0.0169326325369
financieras ||| feasible ||| 0.0268739973644
mismo ||| approaches ||| 0.130737942841
opiniones ||| appeals ||| 0.0645809695506
probablemente ||| assess ||| 0.0165082271487
especulaci ||| attempting ||| 0.0150872946329
ciudadanos ||| cables ||| 0.0412983638013
provoca ||| assassinations ||| 0.0179087821105
esa ||| facing ||| 0.031704619814
pueden ||| albanians ||| 0.0307855433622
divisas ||| knell ||| 0.0423649379134
ciudadanos ||| eligibility ||| 0.016586752492
unidas ||| vi ||| 0.011851762352
la ||| officially ||| 0.0235692286516
un ||| putting ||| 0.0762615593471
habr ||| balance ||| 0.0145503416463
sentados ||| 'financial ||| 0.051509722711
l ||| boost ||| 0.0206799730555
instrumento ||| instrument ||| 0.473567272178
ayuda ||| penalties ||| 0.0407039491359
soluci ||| larrea ||| 0.0131715751286
margen ||| guaranteed ||| 0.0318245070539
hay ||| pervades ||| 0.0326198209582
acogida ||| meetings ||| 0.012097987279
sus ||| society ||| 0.0206845539947
car ||| beyond ||| 0.0128143398927
ramos ||| created ||| 0.0130971690546
frica ||| symbolises ||| 0.0307576383338
de ||| wish ||| 0.0127133591275
me ||| save ||| 0.0131404196107
adecuadas ||| worthwhile ||| 0.050541842967
la ||| particular ||| 0.163962923055
personas ||| homeless ||| 0.0618634117024
encierran ||| dossiers ||| 0.015144528296
cantidad ||| union's ||| 0.054826391213
fortalecer ||| sphere ||| 0.0313865634245
ha ||| structure ||| 0.0688468837555
moslo ||| protecting ||| 0.0223506607137
los ||| wishing ||| 0.013418661948
semanas ||| february ||| 0.0255725915265
india ||| suspicion ||| 0.0136047908888
blica ||| judgement ||| 0.0115154242423
momento ||| suggested ||| 0.0852139255692
pues ||| intervention ||| 0.0247939594013
del ||| symbolises ||| 0.11763244141
respecto ||| grant ||| 0.0553870843356
han ||| canadian ||| 0.0436709152049
multidisciplinario ||| resulted ||| 0.0156572191313
necesidad ||| bernard ||| 0.0448857070222
fin ||| finally ||| 0.16815347244
vitales ||| designed ||| 0.01511148879
tambi ||| turn ||| 0.125763435423
ha ||| politics ||| 0.0368112515164
paga ||| exported ||| 0.011085881985
dif ||| predict ||| 0.0211907568919
han ||| brazilian ||| 0.0785388981508
pondr ||| royal ||| 0.0124131262029
aprobamos ||| illegality ||| 0.0307388672258
ecosistemas ||| origin ||| 0.0107151079012
personas ||| 123 ||| 0.164487915494
probablemente ||| similar ||| 0.0310229840929
dispuestos ||| appropriateness ||| 0.0293183731138
punto ||| transparent ||| 0.0904523063737
hubo ||| realised ||| 0.0563433025068
de ||| over ||| 0.103361832061
cierta ||| capacity ||| 0.0646719859758
prestando ||| adapting ||| 0.0422238797694
contra ||| calls ||| 0.0124603310421
separa ||| handed ||| 0.0434832567959
importancia ||| effectively ||| 0.0285900199793
tengo ||| conduit ||| 0.103469005756
india ||| attempts ||| 0.0103251410373
el ||| established ||| 0.139848674726
evoluci ||| development ||| 0.0146291282767
son ||| delegating ||| 0.0106423452357
es ||| symbol ||| 0.0130984534188
justificacionista ||| excuse-making ||| 0.151808572691
est ||| integrating ||| 0.063327047911
justicia ||| heed ||| 0.0236992148783
aparato ||| apparatchiks ||| 0.262377678521
europeo ||| raise ||| 0.0110408105343
luego ||| july ||| 0.210948184019
un ||| affairs ||| 0.0122752454212
a ||| arise ||| 0.0876633215324
-lo ||| creative ||| 0.0218148926282
creaci ||| partnership ||| 0.0553170628629
renunciar ||| boetticher ||| 0.0560041552433
una ||| properly ||| 0.0442250699059
instauraci ||| goes ||| 0.0186031741143
or ||| gollnisch ||| 0.0263893346564
de ||| belgium ||| 0.0910328959233
gigantescas ||| huge ||| 0.031671736921
a ||| heighten ||| 0.0122666273611
nota ||| holding ||| 0.0402631805171
provocado ||| leading ||| 0.0901984153408
aplican ||| impossible ||| 0.068227127995
perversa ||| identical-sounding ||| 0.0721512723948
ciudadanos ||| 39 ||| 0.0123447559724
monedas ||| uncertainty ||| 0.0120631236461
copace ||| fisheries ||| 0.0365095024452
que ||| opportunity ||| 0.0146841759517
sabido ||| acquis ||| 0.0203942926308
art ||| motor ||| 0.0579434862375
medida ||| kosovar ||| 0.042035459441
plantearla ||| fit ||| 0.021463585211
con ||| appeals ||| 0.106707005653
no ||| approach ||| 0.0156872587256
durante ||| showing ||| 0.0147494244715
fice ||| iv ||| 0.0955619078323
particular- ||| paid ||| 0.0112363482652
podr ||| goes ||| 0.0166245136376
pol ||| discussion ||| 0.0127087542106
xen ||| harmonised ||| 0.073999612149
siguen ||| perpetrate ||| 0.0570756531792
se ||| primarily ||| 0.0126509692054
seres ||| child ||| 0.0319272552806
mantenido ||| unacceptable ||| 0.0461324512852
productos ||| exported ||| 0.0175855548532
de ||| mrs ||| 0.139753536854
tulo ||| fifth ||| 0.109051720305
nacional ||| platform ||| 0.0795078083108
por ||| seized ||| 0.0113033379921
marco ||| neighbouring ||| 0.012643406613
muestra ||| reservations ||| 0.116630451048
los ||| back ||| 0.0154951288188
sr ||| karas ||| 0.0967854349675
gran ||| faces ||| 0.0276832141228
an ||| extent ||| 0.0416105705935
va ||| crisis ||| 0.0178548010032
las ||| established ||| 0.0275722212984
las ||| day ||| 0.0184629188105
mbito ||| regardless ||| 0.018896508969
los ||| efa ||| 0.0262465731291
sea ||| decades ||| 0.0772308572594
los ||| of ||| 0.0571806238439
momento ||| 1993 ||| 0.0143206254625
detallado ||| usa ||| 0.0125506519065
permitido ||| telecommunications ||| 0.0229705839511
metas ||| architect ||| 0.0521065895608
al ||| sacrosanct ||| 0.0227468505772
condena ||| experiences ||| 0.0147744559369
nosotros ||| goal ||| 0.0557974149249
a ||| requirements ||| 0.0144596118212
es ||| too ||| 0.0106077482331
todo ||| 70 ||| 0.080873264547
de ||| asian ||| 0.0117645324135
materia ||| strategic ||| 0.0351121679631
pronunciarse ||| timely ||| 0.0305756654391
parlamento ||| care ||| 0.0142838297803
os ||| modern-day ||| 0.0194084613375
otra ||| offer ||| 0.107633622737
a ||| possibly ||| 0.0741114715402
sentimiento ||| underlies ||| 0.0482472353505
n ||| virtually ||| 0.0136505503462
modernos ||| modern-day ||| 0.0292329166047
especulativas ||| difficulty ||| 0.0242622431255
repercusiones ||| farmers' ||| 0.0197429991146
situar ||| temptation ||| 0.103439297434
mbito ||| wherever ||| 0.049290582775
a ||| skateboard ||| 0.0909927172462
ndo ||| aforesaid ||| 0.132122718275
dificultades ||| hard ||| 0.112503345013
de ||| need ||| 0.207681071615
per ||| 21 ||| 0.0782033254274
urbanos ||| cross-border ||| 0.0170356174683
gicas ||| prevention ||| 0.100022531655
sector ||| space ||| 0.0101997476042
actualmente ||| inefficient ||| 0.0245572975302
turqu ||| earthquake-prone ||| 0.0147080329711
n ||| envelope ||| 0.0145556105331
as ||| systematic ||| 0.154906981437
desgracia ||| wondering ||| 0.0606247803388
los ||| strengthens ||| 0.0170296805914
los ||| laying ||| 0.0144134129266
medidas ||| factory-style ||| 0.0101255887623
consecuencias ||| undertakings ||| 0.107229407646
plantearnos ||| factor ||| 0.0131167329585
respetos ||| depending ||| 0.042403077665
europa ||| dollar ||| 0.0136959835961
rural ||| renovation ||| 0.0296291412324
aplicarlos ||| obtaining ||| 0.0270601959028
tiene ||| operators ||| 0.018250821215
creaci ||| gain ||| 0.0110451279391
coinciden ||| signatory ||| 0.0709862705375
previa ||| communautaire ||| 0.014431601818
fragilizada ||| plethora ||| 0.020044483285
equitativa ||| fair ||| 0.0256971639295
encontrar ||| encourage ||| 0.0133439916413
han ||| western ||| 0.0281699901369
establezca ||| equally ||| 0.0278771293538
contradictorias ||| contradictory ||| 0.0427003425634
recaudados ||| gives ||| 0.0370806233942
de ||| publication ||| 0.0151282968575
hora ||| hour ||| 0.104994766121
comercio ||| remaining ||| 0.0127120861066
grecia ||| piece ||| 0.187390657413
ser ||| visible ||| 0.145754227604
la ||| fully ||| 0.0284015938421
vengan ||| listen ||| 0.0101741817455
embargo ||| however ||| 0.16873260117
conocemos ||| experts ||| 0.0410010598567
lucrativas ||| shares ||| 0.136529824959
tengan ||| provisional ||| 0.0122855459754
kosovo ||| tended ||| 0.0132423959439
por ||| eventually ||| 0.0543629942665
trabajos ||| german ||| 0.0419421072783
problema ||| housing ||| 0.0208798424182
mbito ||| protocols ||| 0.0204536548609
estudiante ||| suspect ||| 0.0564154066726
comparamos ||| conservation ||| 0.0341227739884
n ||| exchanges ||| 0.0126336038088
desarrollando ||| moscow ||| 0.0609404821252
h-0788 ||| 6 ||| 0.0221574960237
pregunta ||| laying ||| 0.0554885114243
es ||| difficult ||| 0.0629505886779
asamblea ||| degenerate ||| 0.0395742336765
sino ||| affects ||| 0.0132910848567
momento ||| option ||| 0.0229841165438
ocasi ||| preparations ||| 0.0412565572492
tenor ||| ideology ||| 0.0166875238864
comentada ||| adopt ||| 0.012376123887
cualquier ||| spot ||| 0.0194622531743
espect ||| incisive ||| 0.0333401883439
tratamiento ||| negotiations ||| 0.16063323584
el ||| doors ||| 0.011020687065
ya ||| effected ||| 0.0322630721846
en ||| act ||| 0.153402418307
minuc ||| maltreatment ||| 0.0993347359844
entender ||| avoid ||| 0.016772123269
hacerlo ||| elsewhere ||| 0.0555366780378
mundial ||| recapture ||| 0.0157525390172
acabado ||| holding ||| 0.055809316958
hace ||| cavalese ||| 0.0149392067954
luego ||| soon ||| 0.0141875659592
n ||| absorbing ||| 0.0518862715768
referido ||| consult ||| 0.0238259899669
tr ||| day-to-day ||| 0.0151863976492
seg ||| independent ||| 0.0292900246455
debemos ||| shock ||| 0.0183122528814
gran ||| asset ||| 0.020421014327
cabo ||| denmark ||| 0.104841836491
era ||| needed ||| 0.0305105440065
intercambios ||| involve ||| 0.0954500820909
de ||| undertake ||| 0.0395965910574
por ||| excuse ||| 0.0154110026972
uni ||| repeatedly ||| 0.0387939236109
esas ||| meet ||| 0.0109896392813
pueden ||| dead ||| 0.0476327926591
elegir ||| costly ||| 0.0245962897582
eventualmente ||| associated ||| 0.016286962841
su ||| work ||| 0.0151284680556
posibilite ||| suspicion ||| 0.0346122677225
efectivo ||| pretend ||| 0.102956380394
bastar ||| world' ||| 0.0152438019067
haber ||| succeed ||| 0.0398753506112
mundial ||| 24 ||| 0.0261284108212
bienvenida ||| ministry ||| 0.0404246315822
sentido ||| sense ||| 0.348004264185
asunto ||| cross-border ||| 0.0341408242624
voluntad ||| lacking ||| 0.155127446605
instrumento ||| behave ||| 0.0985377201321
decir ||| stabilise ||| 0.0260477214217
las ||| replied ||| 0.0133474584778
no ||| does ||| 0.144496458047
conseguir ||| biological ||| 0.0287290203468
panorama ||| scene ||| 0.0531160219868
mos ||| honourable ||| 0.0217145446528
estrat ||| consulted ||| 0.0955999974624
gigantescos ||| restructuring ||| 0.0614082489583
que ||| within ||| 0.0376228796387
las ||| of ||| 0.051715356163
le ||| fischler ||| 0.0375011425486
primera ||| submit ||| 0.0648552893638
poblaci ||| attract ||| 0.0134324583402
realizados ||| scene ||| 0.0116718184191
sustanciales ||| yield ||| 0.0681563578512
burocracia ||| counter ||| 0.026325713651
movimiento ||| mergers ||| 0.105784180636
ahora ||| amount ||| 0.0845759655247
n-estado ||| arrest ||| 0.0515184443291
conferencia ||| intergovernmental ||| 0.22915062805
contestadas ||| replied ||| 0.102688406226
explotaci ||| exploiting ||| 0.0746942536239
con ||| laws ||| 0.0520238773432
utilizamos ||| investigate ||| 0.0225527866769
para ||| pursue ||| 0.022430875606
contrario ||| fraud ||| 0.0554150624667
pensamos ||| strategies ||| 0.0115926059998
polic ||| promised ||| 0.0319668432244
financieros ||| investors ||| 0.013019872286
sabemos ||| highlighted ||| 0.0215867338334
con ||| fears ||| 0.0197785945095
contra ||| redistributing ||| 0.0221805928926
autoriza ||| cross-border ||| 0.0641336281356
la ||| well ||| 0.048314013872
estimados ||| successfully ||| 0.0266122222655
por ||| release ||| 0.0248720775381
evoluci ||| diplomats ||| 0.0185074220477
dispenso ||| dunn ||| 0.0204407899755
pr ||| optimistic ||| 0.147274345088
tierra ||| horde ||| 0.0816792107936
tan ||| commitment ||| 0.142609348917
as ||| change ||| 0.0121170544659
voz ||| voice ||| 0.13881809988
amenaza ||| back ||| 0.0145318067123
nuevas ||| threat ||| 0.0100781232702
poblaci ||| plunging ||| 0.0508506720308
situaciones ||| lom ||| 0.0835230231876
la ||| decided ||| 0.0333531907113
escasa ||| argument ||| 0.0125769972986
normas ||| union's ||| 0.119227530768
o ||| concluded ||| 0.0136973278013
los ||| causing ||| 0.306277588765
las ||| highlighted ||| 0.0549707124036
mo ||| homophobia ||| 0.0127800539871
especulativos ||| applied ||| 0.0103028977814
n ||| entire ||| 0.0118160000206
consecuencias ||| consequences ||| 0.379962384176
residan ||| lived ||| 0.0766085339235
de ||| faced ||| 0.0127762747587
esta ||| conditionality ||| 0.0106539446277
saqueos ||| pretext ||| 0.0167690630305
ahora ||| other' ||| 0.0120902911156
tenemos ||| bitter ||| 0.0101483337183
nuestro ||| judiciary ||| 0.0227260079552
instrumentos ||| costly ||| 0.0213149523186
ministro ||| inevitably ||| 0.0241648288358
pues ||| prepared ||| 0.0464777939251
presentadas ||| 40 ||| 0.0114560939396
obstaculizar ||| confusing ||| 0.139517356451
posiblemente ||| luxembourg ||| 0.028237297977
plano ||| radiation ||| 0.0316894990538
presidencia ||| knock-on ||| 0.0537568030409
un ||| where ||| 0.0474968051322
presentado ||| response ||| 0.0200405127825
evidente ||| impressions ||| 0.0369971552996
un ||| and ||| 0.0114109297817
progreso ||| unwillingness ||| 0.0158854997919
porque ||| hidden ||| 0.0149931906361
dan ||| military ||| 0.0106755452383
medios ||| judiciary ||| 0.0143581407065
marcador ||| score ||| 0.0735117091015
el ||| actions ||| 0.0276947995388
tac ||| fixed ||| 0.0550842897969
presidente ||| chamber ||| 0.0118283453171
uni ||| impression ||| 0.0106203236488
me ||| i ||| 0.0284083117398
trato ||| promote ||| 0.0161056925464
incluir ||| provides ||| 0.0769844640783
presenta ||| critical ||| 0.0546072099095
compromete ||| undertake ||| 0.0116224410188
como ||| abandoned ||| 0.0559386612071
por ||| confusing ||| 0.156926538438
cabo ||| reiterated ||| 0.0321841901078
al ||| both ||| 0.012473398134
y ||| sets ||| 0.0349534078475
del ||| rates ||| 0.0253055424979
recientemente ||| contacts ||| 0.0157177457455
han ||| another ||| 0.0216334839313
tenemos ||| meets ||| 0.0438334622474
opiniones ||| views ||| 0.0383497444709
m ||| broader ||| 0.0115991561954
amplio ||| arms ||| 0.0780646097728
puede ||| ever ||| 0.0444621610508
quiero ||| mention ||| 0.0242830548323
lugar ||| firstly ||| 0.434798721861
tulo ||| vi ||| 0.0201279780271
ya ||| extreme-right ||| 0.0231039428449
cumplen ||| check ||| 0.0273280844794
la ||| 2000 ||| 0.0250058563848
el ||| look ||| 0.0151028793157
pueden ||| dependency ||| 0.060600880565
podemos ||| wide-ranging ||| 0.131097777249
de ||| content ||| 0.0166145566815
su ||| country' ||| 0.0184448640282
hecho ||| austria' ||| 0.0443964210852
desarrollo ||| proved ||| 0.0707491560738
desde ||| afforded ||| 0.0982661502033
muchas ||| awaited ||| 0.0741496871094
ejercido ||| confusing ||| 0.102570941617
falta ||| failure ||| 0.0126875965948
esto ||| peake ||| 0.0533725770927
tanme ||| me ||| 0.0338218822492
a ||| join ||| 0.0239128296482
aquellos ||| expected ||| 0.0196695381113
tras ||| evidenced ||| 0.0184549529917
parlamento ||| complies ||| 0.0216932413934
propuesto ||| sound ||| 0.0937587949387
ha ||| france ||| 0.0121102743932
a ||| cus ||| 0.130230428258
a ||| way ||| 0.196543258594
mediante ||| funds ||| 0.0118120978609
rico ||| cables ||| 0.0431051887605
reino ||| greece ||| 0.0860611733493
su ||| balkans ||| 0.0572394720766
enorme ||| setting ||| 0.0803546506327
mbito ||| taken ||| 0.0121378772554
-y ||| residence ||| 0.0101634957518
institutos ||| requirements ||| 0.0109799503758
puede ||| satisfy ||| 0.0154277577099
comunidad ||| calls ||| 0.070450832726
constituir ||| arson ||| 0.0269687668163
presidencia ||| note ||| 0.0260041851278
al ||| albeit ||| 0.0196080075487
actos ||| albanians ||| 0.0168549697537
haga ||| effort ||| 0.104729428829
decisiones ||| well ||| 0.0112047195098
todos ||| fraud ||| 0.012043566244
como ||| like ||| 0.0296991140873
palabras ||| pursued ||| 0.0231829983597
pero ||| chances ||| 0.0147497458889
blica ||| tasks ||| 0.0134864698173
pescar ||| studies ||| 0.0360180138219
pretenden ||| civil ||| 0.0193570028488
grave ||| 'non-refoulement' ||| 0.065821684251
totalidad ||| germany ||| 0.0180667699587
emigraci ||| reasons ||| 0.0592903325317
acuerdo ||| laid ||| 0.0194762294547
rico ||| cottages ||| 0.0624704180023
en ||| built ||| 0.0230800410697
me ||| father ||| 0.0634187809631
igual ||| 83 ||| 0.010071670905
utilizar ||| resonance ||| 0.0220771244728
trabajar ||| links ||| 0.0387874843752
sus ||| contributions ||| 0.0294465837379
ello- ||| fair ||| 0.0260767727736
tampere ||| summit ||| 0.0101550042027
permite ||| combination ||| 0.0792389093242
la ||| media-plus ||| 0.0379975879108
car ||| region ||| 0.0444356317121
haya ||| rejected ||| 0.0971819592783
neamente ||| parallel ||| 0.1151066775
comunidad ||| compatibility ||| 0.0514595852209
de ||| granted ||| 0.010207591949
entre ||| comprehensive ||| 0.0530221533871
escatimando ||| miserably ||| 0.070552624846
tambi ||| attracts ||| 0.0405673463778
reparto ||| allocated ||| 0.0358312885182
antonio ||| congratulate ||| 0.0287514309921
no ||| pile ||| 0.0215269600537
nacionales ||| pretend ||| 0.0189629431414
y ||| european ||| 0.0497764447776
europeas ||| well-informed ||| 0.097058543416
otros ||| europe-wide ||| 0.0861836686648
lo ||| fit ||| 0.218719528553
que ||| result ||| 0.0676975686733
plenamente ||| threat ||| 0.0194106933205
mientras ||| repairing ||| 0.0219800290776
referido ||| aspect ||| 0.0168986513109
queja ||| complaint ||| 0.30756805937
adir ||| media-plus ||| 0.0667614286866
suman ||| 350 ||| 0.0466019278627
qu ||| see ||| 0.0145261744486
este ||| ignored ||| 0.0576487287966
desean ||| cooperating ||| 0.0330097859723
ciencia ||| science ||| 0.0709502323749
que ||| complicated ||| 0.0125850334988
manera ||| interaction ||| 0.0126920704404
la ||| transfer ||| 0.0108493532579
contradictorias ||| due ||| 0.0173935500692
orden ||| added ||| 0.0429871883252
se ||| oral ||| 0.0196154230934
ticas ||| exchanges ||| 0.0107153506621
mercados ||| reduce ||| 0.0124361427883
hecho ||| forced ||| 0.0120466625623
un ||| multiplication ||| 0.0152080257512
integraci ||| wrought ||| 0.0626045105784
ue ||| around ||| 0.0136166059106
voluntad ||| each ||| 0.0188081555422
firma ||| signing ||| 0.0436702919421
entr ||| ionising ||| 0.0342364224305
las ||| subsequently ||| 0.0206549680749
como ||| pleased ||| 0.0267215222797
mercado ||| fanciful ||| 0.0145562933081
conejo ||| reduced ||| 0.0342871040938
desde ||| context ||| 0.0360996937487
peque ||| incomes ||| 0.0269206267595
la ||| military ||| 0.0889272172969
respuestas ||| reviewed ||| 0.0326581960486
para ||| scenarios ||| 0.0416058222408
ello ||| route ||| 0.0274755191904
tanto ||| excuse ||| 0.0459616824662
opciones ||| futures ||| 0.025153892547
relieve ||| prime ||| 0.0412322214449
mensaje ||| send ||| 0.0303444425683
ah ||| summit ||| 0.0264444459296
la ||| in ||| 0.103553919516
en ||| european ||| 0.0983817780683
cter ||| depends ||| 0.0156015486955
de ||| multi-ethnic ||| 0.0259866617612
independientemente ||| saying ||| 0.0118333173408
tipo ||| radiological ||| 0.0553211845782
donde ||| come ||| 0.0110526562757
en ||| nevertheless ||| 0.0114859096938
ser ||| easy ||| 0.106846193206
amo ||| henceforth ||| 0.0564019860835
iniciado ||| dunn ||| 0.0206727273589
ionizantes ||| ionising ||| 0.0263447854996
correcto ||| willing ||| 0.0118646193195
para ||| peake ||| 0.0134478193641
nivel ||| appropriately ||| 0.0448199635582
explotaci ||| living ||| 0.0495342456577
poder ||| hope ||| 0.0280399765188
bienestar ||| loss ||| 0.0248007106132
otras ||| supranational ||| 0.0700188937563
turqu ||| fears ||| 0.0485327184711
menor ||| drawing ||| 0.105941994443
condiciones ||| able ||| 0.0155381434673
derecho ||| mean ||| 0.0149195364045
junto ||| usa ||| 0.0134494489336
claro ||| clear ||| 0.312589736854
la ||| 12 ||| 0.022214492107
pudiera ||| refrain ||| 0.0623205450438
ocupada ||| purposes ||| 0.014427725888
en ||| record ||| 0.0187286073685
debe ||| migration ||| 0.0515453170987
de ||| both ||| 0.0445061124862
sus ||| tiger ||| 0.0460938223617
en ||| austria ||| 0.0405465601691
asistir ||| 'cabinets' ||| 0.018437289377
presiones ||| pressures ||| 0.0517040077833
presentes ||| over-centralisation ||| 0.181627078807
extraordinaria ||| begin ||| 0.0108044021222
plazo ||| penalise ||| 0.0326761125942
agradezco ||| appreciate ||| 0.0248849043598
las ||| regulations ||| 0.0455689898622
- ||| dealings ||| 0.0583711648179
otras ||| exceptional ||| 0.0509217497167
enero ||| friday ||| 0.0736476123424
con ||| cannot ||| 0.0104233514667
muros ||| boundaries ||| 0.0592789039329
infantil ||| trafficking ||| 0.017433795671
nada ||| reject ||| 0.0645178418755
y ||| including ||| 0.037614715709
global ||| violate ||| 0.0197593236953
tica ||| receive ||| 0.011093272543
para ||| lessons ||| 0.0102706937628
necesitamos ||| outlined ||| 0.0376182938161
trata ||| creative ||| 0.0299027954052
desarrollos ||| changed ||| 0.11237939434
fuente ||| mid-nineties ||| 0.0187248270439
o ||| receiving ||| 0.239868337908
a ||| in ||| 0.0719770260071
interrumpe ||| cut ||| 0.310824036999
por ||| confidence ||| 0.0115688698672
el ||| scene ||| 0.0110185459324
el ||| aware ||| 0.0539122828988
caso ||| tended ||| 0.0150719375365
intervenir ||| speak ||| 0.133561252978
smicos ||| extreme ||| 0.0267272361353
las ||| approach ||| 0.158649108257
preservaci ||| make-up ||| 0.0408168559912
nos ||| pleased ||| 0.0320164918169
al ||| monopoly ||| 0.0327538583022
n ||| crossing ||| 0.0254666911044
dicho ||| ratified ||| 0.0236301738513
deber ||| adequate ||| 0.0397583245572
-euf ||| fine-sounding ||| 0.0514453583673
celebraci ||| vi ||| 0.0901580534182
ocuparse ||| widening ||| 0.0128545390054
este ||| presidents ||| 0.0133357285301
familias ||| surety ||| 0.0163335307981
sustanciales ||| sums ||| 0.0474699994881
especialmente ||| beef ||| 0.0234597217121
constituido ||| incomprehensibly ||| 0.0384513060956
provocado ||| shootings ||| 0.0446015588405
car ||| comments ||| 0.0141004414548
atractivas ||| makes ||| 0.012921418515
hacemos ||| clear ||| 0.0160859981389
pleno ||| fairness ||| 0.0167758092351
de ||| actions ||| 0.0220181468412
6 ||| figure ||| 0.014520908731
del ||| women ||| 0.07424618259
c ||| slightest ||| 0.0337602232056
tenga ||| attach ||| 0.0381805404826
el ||| personalities ||| 0.0315722553388
a ||| identical-sounding ||| 0.0101736329379
llevar ||| remain ||| 0.0443586526955
formalidad ||| deadly ||| 0.115945138356
justicia ||| von ||| 0.0435751390376
puede ||| water ||| 0.0201579948772
pr ||| addressed ||| 0.053349837615
reuniones ||| chairman ||| 0.0164072127484
inmediata ||| surety ||| 0.0932077896898
parlamento ||| advisers ||| 0.0471507256708
aparente ||| saying ||| 0.011265760751
acuerdo ||| fiscal ||| 0.0110132284039
el ||| one ||| 0.0363675935819
emigrar ||| rigour ||| 0.0387270728521
las ||| jeopardise ||| 0.0121429128209
al ||| appeal ||| 0.0855742564356
ticamente ||| make-up ||| 0.049612728959
dif ||| well-meaning ||| 0.0344966935466
r ||| patten' ||| 0.0791580076779
env ||| showing ||| 0.0418402363762
los ||| acquired ||| 0.0473018638613
mercaderes ||| modern-day ||| 0.0105064634746
doblar ||| person ||| 0.0849328950425
mucho ||| clarified ||| 0.0131874407791
a ||| crops ||| 0.0849346181065
limitaci ||| limits ||| 0.0174479116297
inicio ||| directions ||| 0.0515797929479
a ||| airport ||| 0.0282160148425
ayuda ||| 0 ||| 0.0110159204483
comportamientos ||| change ||| 0.0240260070528
un ||| create ||| 0.0359148936772
dictar ||| penalties ||| 0.0106900783563
solicitud ||| presidents ||| 0.0140510760848
se ||| vienna ||| 0.0116824049021
cabo ||| telecommunications ||| 0.035791767046
sufridas ||| abductions ||| 0.025433365214
aducidos ||| souladakis ||| 0.0118625072191
tampere ||| goals ||| 0.039789887454
rica ||| odds ||| 0.0470600809638
los ||| factor ||| 0.0105512766183
n ||| implementing ||| 0.0355342287811
demasiados ||| river ||| 0.0747395027372
objetivo ||| environment ||| 0.0268717515311
no ||| think ||| 0.020502695464
pide ||| requesting ||| 0.0793557449593
darle ||| men ||| 0.0519442914778
logo ||| strengthens ||| 0.0365387925454
panorama ||| looks ||| 0.055768102357
impuestos ||| speculators ||| 0.0136113664037
producido ||| omission ||| 0.0305411920256
servicios ||| advisers ||| 0.136536836129
que ||| illegal ||| 0.0261152493451
a ||| he ||| 0.0389994401817
encaminado ||| eaggf ||| 0.0338928793838
discos ||| storage ||| 0.0662583377621
mites ||| cable ||| 0.0122978543379
marcaron ||| life ||| 0.0396220684787
n ||| view ||| 0.0360310661634
n ||| speak ||| 0.0443881757959
se ||| had ||| 0.0319582608919
el ||| re-establish ||| 0.0551055025466
por ||| family ||| 0.0140784199897
ser ||| february ||| 0.0185184973034
actitud ||| conduit ||| 0.0963511385471
esto ||| contrary ||| 0.0511218686214
resultado ||| final ||| 0.0148552966984
manera ||| behaviour ||| 0.0286765831045
adquisiciones ||| frequency ||| 0.129949654785
mundial ||| ensure ||| 0.0110168306233
la ||| integration ||| 0.0296014438728
ha ||| burying ||| 0.074290308779
presidente ||| join ||| 0.101370469464
sobre ||| frahm ||| 0.0203698657359
parlamento ||| relationship ||| 0.103608374165
una ||| dog ||| 0.0334780322257
contradice ||| counter ||| 0.0821554784545
mismas ||| combining ||| 0.0648394348433
materia ||| unprecedented ||| 0.0227568143005
de ||| procedural ||| 0.0133083528921
n ||| million ||| 0.0362786908839
quer ||| seconds ||| 0.0665735901963
actividades ||| identifying ||| 0.0498149271403
totalmente ||| absolutely ||| 0.0235778299477
sin ||| used ||| 0.0719000661696
a ||| place ||| 0.0517721427902
principio ||| ensures ||| 0.0125700712715
decisiones ||| decrees ||| 0.0680891599036
incendios ||| pretext ||| 0.0430783863926
soluci ||| proposing ||| 0.0163551692918
su ||| agriculture ||| 0.0134087564064
volumen ||| quarter ||| 0.136830812357
pnud ||| sum ||| 0.0569703574029
deben ||| demographic ||| 0.0774988542787
aplicar ||| analysis ||| 0.0180408364697
partes ||| avoiding ||| 0.0841225179583
y ||| avoiding ||| 0.0266305617233
estimados ||| sector ||| 0.0222548795061
econ ||| symbols ||| 0.0437151653854
pide ||| submitted ||| 0.167624907403
lugar ||| injurious ||| 0.0453999818095
lisboa ||| informal ||| 0.0233316193753
evidentemente ||| aspect ||| 0.0145767424225
vistas ||| thing ||| 0.0165337066133
un ||| able ||| 0.0209224687536
cter ||| dunn ||| 0.0442713733331
y ||| often ||| 0.0429006121098
relativas ||| integration ||| 0.0468223195044
eramos ||| reality ||| 0.0717596200376
equiparable ||| decided ||| 0.0110697966295
contribuir ||| undp ||| 0.0875967760792
tomar ||| ruled ||| 0.0331647188191
son ||| predict ||| 0.0168839905636
estamos ||| properly ||| 0.0164462804455
elecci ||| judgement ||| 0.0114607779436
tan ||| history ||| 0.0145563005694
varias ||| initiators ||| 0.0726677034613
preparaci ||| emphasise ||| 0.0135762080001
transcurrido ||| music ||| 0.0377635023933
uso ||| receive ||| 0.0517370183723
decir ||| transfer ||| 0.0454249026535
de ||| total ||| 0.136292834642
provocar ||| hours ||| 0.0141873520991
extraordinario ||| entry ||| 0.262128870671
bajo ||| schulz ||| 0.0366917929309
aplican ||| effect ||| 0.0127325068816
arm ||| profitable ||| 0.0767770364582
largo ||| long ||| 0.317506918745
como ||| said ||| 0.0169683290628
ellos ||| realise ||| 0.0251631438341
ximo ||| entered ||| 0.0338611039524
colega ||| enjoyed ||| 0.0192319601364
actividades ||| sweden ||| 0.0271413717679
concepto ||| schulz ||| 0.0416777361966
este ||| orders ||| 0.0279534014929
nuestra ||| image ||| 0.0220969486307
nombre ||| b5-0040 ||| 0.0115320718761
mercado ||| noble ||| 0.0287531131403
incorporado ||| acquis ||| 0.0133121071624
de ||| serbs ||| 0.013545668544
formalmente ||| undertaking ||| 0.0304049004168
iniciativas ||| underpinning ||| 0.0245134238371
nivel ||| limit ||| 0.0317748114143
suecia ||| strengthens ||| 0.0313834300807
posible ||| much ||| 0.0133175599816
control ||| border ||| 0.0350433664947
intento ||| attempt ||| 0.134664626947
todo ||| lack ||| 0.0637554615082
para ||| built ||| 0.0137433133871
m ||| banks ||| 0.0104855335157
demandas ||| demonstrators ||| 0.14650309539
para ||| kept ||| 0.250696520874
su ||| care ||| 0.058321624166
cinco ||| wait ||| 0.0150822795987
turqu ||| helping ||| 0.0409540443856
hecho ||| appropriateness ||| 0.017879797704
sentido ||| symbolises ||| 0.0558237211924
ha ||| perpetrated ||| 0.022067836205
inseguridad ||| responses ||| 0.0777175839995
como ||| as ||| 0.338079496858
evidente ||| obviously ||| 0.0184640626373
en ||| reserves ||| 0.0761549867715
especie ||| pernicious ||| 0.0690805256302
n ||| bear ||| 0.0347286273957
resoluci ||| motion ||| 0.527714368719
un ||| may ||| 0.0187804726367
fico ||| consists ||| 0.0329928980524
naturalmente ||| course ||| 0.305697639449
sin ||| behind ||| 0.0167111556934
agricultura ||| white ||| 0.0156586857575
documento ||| drawn ||| 0.0148042103993
apoyo ||| non-albanian ||| 0.0243618812398
adquirido ||| conclusion ||| 0.0628600647466
colegas ||| honourable ||| 0.0285377512021
aportar ||| little ||| 0.0105079684745
que ||| continue ||| 0.0172125752162
construcci ||| canadian ||| 0.01119609966
reuni ||| reunited ||| 0.0334461434821
secretario ||| functions ||| 0.056669474613
por ||| damaging ||| 0.0658782656946
decisiones ||| vitally ||| 0.0196202506467
nuestro ||| added ||| 0.180295343617
a ||| therefore ||| 0.167997053711
un ||| subject ||| 0.0179539844107
evitase ||| strongly ||| 0.0305145429042
gitana ||| defence ||| 0.0177892077218
europol ||| officers ||| 0.0260797399439
datos ||| inefficient ||| 0.0951253407375
asedio ||| threatening ||| 0.0111832256533
simos ||| interface ||| 0.0205809273681
estar ||| term ||| 0.0174284343887
reinvertidos ||| fortunes ||| 0.0350392398462
decir- ||| internally ||| 0.0705027350004
obligaci ||| properly ||| 0.0107515136805
har ||| doing ||| 0.0174440799606
respuestas ||| replies ||| 0.298443982646
el ||| scope ||| 0.0124518739084
su ||| ensure ||| 0.0222507619986
sea ||| provoke ||| 0.0802377801141
sentido ||| reiterated ||| 0.0161803189975
partes ||| micro-states ||| 0.0591778129671
presentadas ||| received ||| 0.0241490061778
siguiente ||| summer ||| 0.049761665793
como ||| up ||| 0.0288215082056
esferas ||| wand ||| 0.0907174259229
hayan ||| judgement ||| 0.0377894011376
frente ||| safeguard ||| 0.0166453967028
lo ||| impinge ||| 0.014300508503
y ||| towards ||| 0.021917021305
que ||| selling ||| 0.0274812866899
espa ||| rational ||| 0.0107640597479
necesitamos ||| securing ||| 0.0179950096922
y ||| development ||| 0.0419333902715
nacional ||| via ||| 0.0324984948406
invertir ||| abandoning ||| 0.0234431427605
esta ||| flies ||| 0.0691439237988
relativas ||| outstanding ||| 0.020281367907
recuerdo ||| inaugural ||| 0.16803809141
provoc ||| nato ||| 0.0313874660204
m ||| american ||| 0.0133469593621
otras ||| get ||| 0.0122112313947
una ||| soares ||| 0.0270913284003
situaci ||| flows ||| 0.0185337111782
dicha ||| flow ||| 0.0690650177415
tal ||| outside ||| 0.0341693337724
nosotros ||| envisaged ||| 0.0121818940791
ora ||| tabled ||| 0.0132686087306
internacionales ||| flows ||| 0.115133476536
ya ||| plethora ||| 0.0431487200733
ausencia ||| impossible ||| 0.0242464307881
las ||| change ||| 0.0181870995915
tenor ||| identical-sounding ||| 0.0388802313252
deben ||| normalisation ||| 0.0159988492163
aplicaci ||| obtaining ||| 0.0260660243796
seg ||| sell ||| 0.0318051681789
al ||| cut ||| 0.255144401974
y ||| needs ||| 0.32943649813
la ||| round ||| 0.0240468812376
adoptar ||| scale ||| 0.016131353584
entregado ||| loyalist ||| 0.101701119416
concepto ||| concept ||| 0.120077246741
punto ||| operate ||| 0.0175583860833
tenga ||| jha-ecofin ||| 0.026129793824
1993 ||| crises ||| 0.0101651426989
fin ||| came ||| 0.0209112096294
europeo ||| river ||| 0.0533456156679
tiroteos ||| shootings ||| 0.0425245524196
evaluado ||| 5000 ||| 0.0691407600941
principal ||| governance ||| 0.0239460809077
clara ||| instance ||| 0.0281970203927
discutir ||| widen ||| 0.0101485410213
el ||| opportunity ||| 0.113679347764
deber ||| duty ||| 0.217739692333
m ||| cables ||| 0.0297074515695
como ||| holding ||| 0.0148833139829
a ||| into ||| 0.0328732595803
esperamos ||| trying ||| 0.0383251719313
las ||| stresses ||| 0.0165258665536
actual ||| proximity ||| 0.0958642497397
cosas ||| offices ||| 0.0167425466203
de ||| explore ||| 0.010298274685
resonancia ||| proceeds ||| 0.0807493552398
permitir ||| experienced ||| 0.0556592969898
movilizar ||| assure ||| 0.0709045094452
posible ||| unless ||| 0.0286062827439
mismo ||| era ||| 0.0277827657271
com ||| imposing ||| 0.0485867709693
xito ||| other' ||| 0.0296638884508
europeo ||| decent ||| 0.0169393746901
deber ||| sizing ||| 0.0475524070109
en ||| restrict ||| 0.064257498474
akk ||| rk ||| 0.0449368897692
tierra ||| hair ||| 0.11257380535
nuevas ||| new ||| 0.0491832584823
bolkenstein ||| bolkestein ||| 0.0109753267899
sus ||| corporate ||| 0.0432920180032
de ||| simply ||| 0.0174414742574
hablado ||| seeing ||| 0.0228895172165
puede ||| bureaucrats ||| 0.0144146731554
podemos ||| carry ||| 0.0138804348994
caras ||| costly ||| 0.0261359050994
espacio ||| derogate ||| 0.0110223855352
tico ||| false ||| 0.0761871691373
a ||| marinos ||| 0.0124308309675
regionales ||| redressing ||| 0.0243871563599
precisamente ||| concentrate ||| 0.0206484427526
los ||| doubled ||| 0.0283566033928
puntos ||| created ||| 0.0163953755832
voz ||| peace ||| 0.018541490006
destinados ||| appropriations ||| 0.0602806057177
mica ||| modern ||| 0.0953896273873
dif ||| executive ||| 0.0105682467948
tenemos ||| strategically ||| 0.0162696900341
impuesto ||| power ||| 0.0122257407993
centrar ||| resolutions ||| 0.0224356651649
aspectos ||| genuinely ||| 0.0472927378491
ilegales ||| reunited ||| 0.0495622762941
una ||| marinos ||| 0.0463160117989
conjunto ||| credible ||| 0.0423695667384
los ||| eurosceptics ||| 0.0438715557105
adem ||| apart ||| 0.0834863605556
etiop ||| armaments ||| 0.0215196410703
siquiera ||| partners ||| 0.155438446025
la ||| hemp ||| 0.033770506981
precedentes ||| unprecedented ||| 0.0949934511222
siendo ||| resulted ||| 0.0156724510779
capitales ||| burden ||| 0.0599578713436
que ||| remarks ||| 0.032510805587
un ||| looting ||| 0.0112184934472
patten ||| conflict ||| 0.0201473711634
sea ||| excluding ||| 0.0592698634991
consiguiente ||| pre-accession ||| 0.0278440360397
tenemos ||| communitisation ||| 0.0200603743601
respecto ||| workings ||| 0.0154546292336
1999 ||| loyalists ||| 0.0195861129524
igualdad ||| eradicate ||| 0.0496776169149
planificaci ||| challenge ||| 0.0388789995867
en ||| view ||| 0.0269457786235
ticas ||| stressed ||| 0.0144357752546
n ||| social ||| 0.0251516720837
sobre ||| question ||| 0.0115661029155
encontrar ||| willingness ||| 0.0197470363838
donde ||| waiting ||| 0.0323415635395
a ||| senior ||| 0.0124174492884
dir ||| impressions ||| 0.0931616013057
de ||| legislation ||| 0.0120179663088
n ||| implemented ||| 0.0205754846185
respuestas ||| synonym ||| 0.0207884182495
controlar ||| democratically ||| 0.0556763151971
en ||| concerned ||| 0.0734855592071
comunitarios ||| parts ||| 0.0397263917324
mixto ||| jha-ecofin ||| 0.020125039473
provocar ||| plunging ||| 0.042906706561
apoyo ||| turn ||| 0.0228142766687
conseguirlo ||| delighted ||| 0.0950666032661
informar ||| cases ||| 0.0142291434677
del ||| point ||| 0.0306368601366
las ||| tangents ||| 0.0116767384559
lo ||| any ||| 0.0253542478416
inmigrantes ||| avalanche ||| 0.0584432786939
ximo ||| immediate ||| 0.12967867967
indicamos ||| homeless ||| 0.0140972621644
problemas ||| convening ||| 0.015244205704
el ||| using ||| 0.0131681729432
claridad ||| obscure ||| 0.225750763687
simb ||| symbolic ||| 0.116715197846
los ||| hand ||| 0.0173079811242
internacionales ||| supervision ||| 0.0663634698209
enriquecimiento ||| media-plus ||| 0.0336847156037
aqu ||| provoke ||| 0.0108925542453
brevemente ||| operandi ||| 0.0671789189817
eramos ||| becoming ||| 0.103822243648
dijo ||| wished ||| 0.112690604862
especulativos ||| curb ||| 0.116366712862
consistencia ||| diplomatic ||| 0.101009629912
com ||| house' ||| 0.01833756845
ellos ||| them ||| 0.0228321407579
euroesc ||| suspect ||| 0.0247867574278
como ||| instrument ||| 0.0863191580457
as ||| opposed ||| 0.0120970238338
008 ||| opportunities ||| 0.0961557663982
panorama ||| verifying ||| 0.0414557325288
conejo ||| bureaucrats ||| 0.0290045182512
m ||| foreign ||| 0.0152089183532
m ||| prime ||| 0.0239536741033
car ||| species ||| 0.042046427477
carga ||| continent ||| 0.0306445906627
cercan ||| affect ||| 0.042727650168
es ||| gather ||| 0.0173268541825
apostar ||| east ||| 0.0255853604347
a ||| fact ||| 0.0186882962199
de ||| friday ||| 0.115362586775
persistente ||| communities ||| 0.0142910529762
consciente ||| gallagher' ||| 0.0678284046409
del ||| amsterdam ||| 0.016566866266
comisario ||| commissioner ||| 0.713255845816
francesa ||| resolving ||| 0.0208500793509
habremos ||| adapting ||| 0.0612546300643
tica ||| threes ||| 0.0224674789434
futuro ||| ordinary ||| 0.0431994701906
cter ||| both ||| 0.0138725586667
tiene ||| noble ||| 0.0270633549256
mutuo ||| recognition ||| 0.112152832671
solamente ||| forms ||| 0.0450036550627
n ||| permit ||| 0.0128857159152
a ||| long-term ||| 0.0108978656526
mientras ||| influence ||| 0.0274409134502
esperamos ||| mark ||| 0.129833722942
acci ||| incisive ||| 0.0184778480859
sido ||| 37 ||| 0.0329606643792
encomendado ||| verify ||| 0.0686211647301
a ||| thousands ||| 0.029382863168
tanto ||| financing ||| 0.0129532270407
sus ||| remind ||| 0.0308634244887
hemos ||| exactly ||| 0.0344384916164
las ||| regards ||| 0.0674704666142
al ||| achieving ||| 0.0116881408575
ana ||| commons ||| 0.0529573692066
que ||| study ||| 0.0127369427383
particular ||| compatibility ||| 0.0336519510714
pac ||| cap ||| 0.0518995734191
trav ||| ruled ||| 0.0121077889135
energ ||| unit ||| 0.0959829221419
hace ||| liberty ||| 0.0448674007288
lo ||| recent ||| 0.0209490865139
n ||| seven ||| 0.0738891342194
c ||| stretched ||| 0.0214377809102
poco ||| scene ||| 0.0226772861409
energ ||| earthquake-prone ||| 0.0208447123529
marcha ||| conclusion ||| 0.0642696071332
debemos ||| questioning ||| 0.040619847735
responde ||| presidency-in-office ||| 0.0667393566965
falta ||| causing ||| 0.0113506330556
lugar ||| democracies ||| 0.0342023579339
decirlo ||| transition ||| 0.0448045090009
provocados ||| richter ||| 0.0414354652551
los ||| that ||| 0.0515239644436
ya ||| ix ||| 0.0130639371404
punto ||| 95 ||| 0.0291673635124
poner ||| bring ||| 0.0890720824913
portuguesas ||| ten ||| 0.0366343605045
las ||| last ||| 0.0148505519145
condiciones ||| helm ||| 0.0273766197595
y ||| short ||| 0.16147253293
entra ||| underlying ||| 0.0579563607098
una ||| bomb ||| 0.0653906480685
ltimo ||| claim ||| 0.0122497218588
ses ||| export ||| 0.019671132094
postura ||| middle-of-the-road ||| 0.0403454937352
de ||| furthermore ||| 0.0179336917406
pues ||| gain ||| 0.0449824854838
comunes ||| drugs ||| 0.0128248237536
supervisi ||| stepped ||| 0.0424767925687
pescarse ||| claiming ||| 0.0328783353418
excluyendo ||| excludes ||| 0.0115056454443
positivo ||| portugal' ||| 0.0755050214978
del ||| improvement ||| 0.187920462129
partir ||| agency ||| 0.0377317089221
respecto ||| feel ||| 0.0965061495401
diputados ||| ladies ||| 0.0165901019538
las ||| putting ||| 0.0355169319319
solo ||| done ||| 0.040826005945
realizados ||| verify ||| 0.0632132503679
pero ||| explicitly ||| 0.0130751520796
contactos ||| prime ||| 0.0227482082056
mundial ||| planning ||| 0.103745044426
y ||| everybody ||| 0.0118059512882
de ||| inflation ||| 0.0330752406511
medidas ||| measures ||| 0.717790563201
su ||| honour ||| 0.0108621498962
debe ||| explained ||| 0.0721105279321
intergroup ||| intergroup ||| 0.0704685516401
hacer ||| give ||| 0.0275726371521
n ||| establishment ||| 0.0999634738026
camino ||| took ||| 0.0192674512148
instamos ||| call ||| 0.0165472460099
las ||| contributions ||| 0.0343573254953
frente ||| rigour ||| 0.0114242146705
electos ||| gain ||| 0.0122735145554
presenta ||| obtaining ||| 0.0210068862223
las ||| views ||| 0.197196863282
vender ||| mainly ||| 0.0513608536761
yo ||| thinks ||| 0.0670735297534
esta ||| uncertainty ||| 0.0107970221659
trata ||| outside ||| 0.0356321059318
dimensi ||| aspect ||| 0.0494732556065
exagerado ||| securities ||| 0.0466371834964
ticas ||| training ||| 0.0229134535452
sus ||| family ||| 0.0127074221781
integraci ||| significant ||| 0.0144971285739
una ||| biological ||| 0.0114118657666
exclusivamente ||| sound ||| 0.0125075546591
esta ||| bureaucracy ||| 0.048398098492
odiosa ||| committed ||| 0.0877242955155
entre ||| guns ||| 0.0114119341234
relacionados ||| keep ||| 0.0206553690888
rico ||| funded ||| 0.0264375919407
ante ||| positions ||| 0.0224196822334
justicia ||| notable ||| 0.0248440623549
n ||| interreg ||| 0.0116210325949
mueva ||| offices ||| 0.0452443482553
felicito ||| speech ||| 0.0123128211422
tal ||| investments ||| 0.0772232215581
precisamente ||| dimensions ||| 0.047181459892
fernando ||| personalities ||| 0.071959759155
desde ||| ideologically ||| 0.0408481315655
provocada ||| products ||| 0.0317408444231
ar ||| reiterated ||| 0.0287315053275
27 ||| 27 ||| 0.0660058705819
medida ||| communicated ||| 0.0463838435323
el ||| taxation ||| 0.0150557937485
costes ||| below ||| 0.0203185233809
conclusiones ||| returning ||| 0.0402256594451
algo ||| persist ||| 0.011593615247
global ||| renewed ||| 0.0122852616574
competentes ||| competent ||| 0.0469980964664
evoluci ||| parallel ||| 0.0753720783382
contribuir ||| try ||| 0.0553972168153
cuestiones ||| concept ||| 0.0170893441376
lamy ||| millennium ||| 0.0115975013492
concreta ||| opacity ||| 0.0120285562789
y ||| freshwater ||| 0.0157925954177
falso ||| whose ||| 0.0259607325548
dejar ||| naturally ||| 0.0141181254287
enviar ||| eritrea ||| 0.0198374994455
su ||| decide ||| 0.0125091606868
ello ||| acceptability ||| 0.0354667270928
mica ||| disappointment ||| 0.0145312121155
corto ||| bet ||| 0.0322816966615
la ||| millennium ||| 0.0118414032815
relativa ||| protocols ||| 0.0352572550894
titulada ||| cross-border ||| 0.0595909710552
pr ||| adversely ||| 0.0105684445458
aqu ||| respect ||| 0.0592468390247
diariamente ||| 800 ||| 0.0103876447547
controlar ||| call ||| 0.0128621560122
indudables ||| newton ||| 0.0288857138845
una ||| represent ||| 0.0704277033485
incluso ||| involves ||| 0.0486000217257
puede ||| differentiated ||| 0.0141914006926
manera ||| examining ||| 0.0570588358246
parece ||| symptoms ||| 0.0213073914512
gas ||| share ||| 0.0215312794685
hacia ||| build ||| 0.0388906182429
las ||| killings ||| 0.048656899035
respete ||| ensuring ||| 0.0451618256503
regi ||| micro-states ||| 0.0590424151883
recursos ||| resourced ||| 0.153266716938
as ||| days ||| 0.224060231992
derechos ||| liberties ||| 0.0133303831642
da ||| levelled ||| 0.0312559847433
al ||| now ||| 0.0145677188732
incluida ||| peake ||| 0.0537807563152
capacidad ||| adequate ||| 0.043432216067
programas ||| computer-controlled ||| 0.0245876509525
mantener ||| came ||| 0.0188985257103
decir ||| use ||| 0.0114723550825
integraci ||| increased ||| 0.0260351350722
s ||| moments ||| 0.011817274075
or ||| thank ||| 0.0364766965973
tras ||| observations ||| 0.0101986022161
decirle ||| else ||| 0.0908173969272
momento ||| january ||| 0.0264581510641
disponibles ||| translations ||| 0.0166967904882
plantear ||| get ||| 0.0119899948084
islandia ||| finland ||| 0.0280361487307
apoyo ||| contributed ||| 0.0281680347973
estos ||| expression ||| 0.0719830396065
poco ||| rare ||| 0.127943561316
ese ||| consistency ||| 0.0284237024056
p ||| confine ||| 0.0251742862265
presentadas ||| co ||| 0.0425788896914
este ||| role ||| 0.0106821092883
divisas ||| death ||| 0.0164203020746
fusi ||| communitising ||| 0.0392265967204
tomar ||| sweden ||| 0.0326693266984
posible ||| minute ||| 0.0173719623857
10 ||| 90 ||| 0.0567096512843
ascendieron ||| totalled ||| 0.0956963412918
amsterdam ||| treaty ||| 0.0123009259938
cambio ||| quarter ||| 0.0172594061583
caso ||| complete ||| 0.0343700593932
su ||| enough ||| 0.0127694267308
ltimo ||| reinforce ||| 0.0227712700305
velando ||| nationally ||| 0.0561208504906
generales ||| consumer ||| 0.026505204046
cauteloso ||| precautionary ||| 0.0903083107564
meses ||| tunes ||| 0.0121975493462
proceso ||| guaranteeing ||| 0.0151946904443
bien ||| reduction ||| 0.0202583244834
sistem ||| virtually ||| 0.0716990311431
comunidad ||| 14 ||| 0.0176878324058
est ||| adopting ||| 0.0128288473704
50 ||| imagine ||| 0.03077088706
ello- ||| manage ||| 0.0412395943957
productiva ||| harmonious ||| 0.0773263371423
derechos ||| jurisdictions ||| 0.0209791644581
tercer ||| exclusively ||| 0.0282016800328
del ||| demonstrates ||| 0.0245857756448
estar ||| dead ||| 0.0157741841017
sin ||| dead ||| 0.021323387126
propia ||| proximity ||| 0.045584612177
decepci ||| democratically ||| 0.030850211048
conjunto ||| ground ||| 0.0490408471919
una ||| normal ||| 0.0107292563811
son ||| iv ||| 0.0691536447758
interconexi ||| users ||| 0.0463853221703
cual ||| general ||| 0.0107078442468
24 ||| roam ||| 0.0501836877208
menoscabar ||| frenzies ||| 0.0551023620541
refiere ||| overcome ||| 0.0139322092295
diez ||| grant ||| 0.0118285095609
cuales ||| evident ||| 0.0173346400668
no ||| decide ||| 0.0264822110594
estas ||| proponents ||| 0.0590362480834
al ||| 39 ||| 0.0221625650112
adopten ||| seizure ||| 0.0888445544
celebrando ||| extending ||| 0.0338239605892
quiero ||| appeal ||| 0.114725838588
en ||| 55 ||| 0.0181619871358
como ||| recent ||| 0.0501986632215
bien ||| participation ||| 0.0182203981879
de ||| kind ||| 0.0478302884815
armonizaci ||| ec ||| 0.185668633576
hombre ||| vital ||| 0.0127611709782
reducir ||| repercussions ||| 0.050151622762
gana ||| assuage ||| 0.0818678895898
su ||| using ||| 0.0122095057345
apoyando ||| mission ||| 0.0173098620053
oportunidad ||| endorse ||| 0.0286712694213
permitir ||| allow ||| 0.115130960078
mientras ||| reduced ||| 0.0135896991196
estas ||| daily ||| 0.0100683129482
lo ||| readiness ||| 0.0145695143428
particularmente ||| forget ||| 0.0131808478655
puertas ||| proposing ||| 0.0147137121241
clar ||| interface ||| 0.0123079685937
dimensiones ||| declare ||| 0.0227355319906
oriental ||| fanciful ||| 0.0401979445052
la ||| priorities ||| 0.0874982719199
los ||| sweden ||| 0.0227368450825
propuesta ||| thought ||| 0.0201431559499
s ||| referred ||| 0.0864541891722
caso ||| affect ||| 0.0151426554743
son ||| forum ||| 0.046444764595
ninguna ||| benches ||| 0.0117185828148
poblaciones ||| officials ||| 0.0247290855846
sobre ||| financial ||| 0.0213061567716
claramente ||| r ||| 0.0222728803644
el ||| obligations ||| 0.0130205602214
ltimo ||| 17 ||| 0.0223847758472
an ||| suspicion ||| 0.0144925703073
nos ||| early ||| 0.0835030075246
cuales ||| proximity ||| 0.0383503277249
micas ||| 5000 ||| 0.0372072101227
ni ||| less ||| 0.256037752332
sobre ||| scheme ||| 0.0174530281512
l ||| happened ||| 0.0244880449038
tipo ||| type ||| 0.29725096188
en ||| portugal ||| 0.0748344866948
viii ||| x ||| 0.0152886763808
las ||| balanced ||| 0.0503192702884
saber ||| objectively ||| 0.0230157136775
y ||| over ||| 0.0341541907415
fue ||| noted ||| 0.0177641780548
m ||| genuine ||| 0.0259980293289
materias ||| discussed ||| 0.0293844149535
alcanzar ||| released ||| 0.149535212413
encima ||| sons ||| 0.0501282182074
dire ||| monsieur ||| 0.0114037289795
ciencia ||| exceptional ||| 0.111413955383
superior ||| slice ||| 0.0422929569625
en ||| in ||| 0.250948031168
evidentemente ||| ruled ||| 0.0121772051486
s ||| directorate-general ||| 0.0192310858355
verg ||| trafficking ||| 0.0299758371933
del ||| abandon ||| 0.0242182043136
de ||| forward ||| 0.0431891655869
parlamento ||| resignation ||| 0.043201499095
en ||| decision ||| 0.020960556447
presidente ||| personalities ||| 0.0273915325365
era ||| independent ||| 0.0641355772836
seg ||| interdependent ||| 0.0777653577176
di ||| sweden ||| 0.0111452359649
de ||| annual ||| 0.114702755325
territorio ||| elections ||| 0.0291080224728
vivienda ||| attract ||| 0.0254102960737
pero ||| regulatory ||| 0.0115682170383
con ||| damage ||| 0.0373491907393
europea ||| audiovisual ||| 0.0487892364209
principio ||| principle ||| 0.668540397447
alegramos ||| rejoice ||| 0.0437041804928
hoy ||| addressed ||| 0.0110445158584
titulada ||| promotion ||| 0.0512330452574
los ||| europe ||| 0.0329420634845
comit ||| dissemination ||| 0.0988517805264
espa ||| spanish ||| 0.239944365211
ppe ||| epp ||| 0.357711389667
y ||| ways ||| 0.0128393557433
se ||| reports ||| 0.0619946832081
til ||| condition ||| 0.0236368843901
una ||| out ||| 0.0112472742962
que ||| recent ||| 0.0830443214825
la ||| detentions ||| 0.0272761894125
veces ||| involvement ||| 0.0185597970902
informaci ||| intellectual ||| 0.0191113589268
presidente ||| da ||| 0.0213346670911
sobre ||| ratified ||| 0.0268535165344
presidenta ||| sovereign ||| 0.0141367924294
a ||| how ||| 0.0637744505133
errores ||| turned ||| 0.0365395899933
intercambios ||| nobel ||| 0.0613395844147
escuchado ||| carefully ||| 0.0262805138827
llevando ||| receive ||| 0.06169009928
vez ||| increases ||| 0.0417056446861
alteraci ||| sphere ||| 0.0238454021884
un ||| b5-0005 ||| 0.0241856596314
elecci ||| partisan ||| 0.107450890639
ximo ||| waiting ||| 0.0134843336039
cambio ||| 350 ||| 0.0331271463069
consulta ||| considerable ||| 0.0159742313956
en ||| organisation ||| 0.0139296883215
gubernamentales ||| supporting ||| 0.0109781819226
se ||| income ||| 0.0318203085373
a ||| scoreboard ||| 0.0317602414356
europeo ||| conclusion ||| 0.014385122351
o ||| contact ||| 0.0216532530502
econom ||| europe' ||| 0.0108811821686
la ||| put ||| 0.0135248208018
como ||| excuse-making ||| 0.0121443326872
finanzas ||| politicise ||| 0.084293637554
nobel ||| james ||| 0.0328548677355
transacciones ||| differentiated ||| 0.0217496653609
polic ||| power ||| 0.0307802902066
presente ||| stands ||| 0.0937711447233
de ||| discrimination ||| 0.0349486329989
que ||| colleague ||| 0.0247267435953
del ||| sitting ||| 0.0724265247361
un ||| tell ||| 0.267078214308
establecimiento ||| borders ||| 0.0848082989571
va ||| eradication ||| 0.0115152583763
inglesa ||| peake ||| 0.0299392831638
los ||| medium-sized ||| 0.0124184148541
hab ||| read ||| 0.131258115512
defendida ||| known ||| 0.14813128666
creo ||| play ||| 0.024713471613
correcciones ||| redressing ||| 0.121692725824
n ||| television ||| 0.0232825213652
aviano ||| base ||| 0.016897299473
efecto ||| aviano ||| 0.0108653170987
relativo ||| considerable ||| 0.0145505491871
europeo ||| confusing ||| 0.0943050860082
desarrollo ||| joint ||| 0.0102878510486
constre ||| ira ||| 0.0535695691974
respecto ||| stipulated ||| 0.0277264001679
seg ||| listened ||| 0.0140094180893
pasado ||| conduct ||| 0.041822600388
portugal ||| spoken ||| 0.0380360240091
decir ||| e ||| 0.354483089034
considerar ||| film ||| 0.0605244654796
conjunto ||| develop ||| 0.0284679087258
usted ||| nowadays ||| 0.0243192746801
solana ||| patten ||| 0.0488727544452
conjunta ||| interreg ||| 0.0108467043927
suficiente ||| engineer ||| 0.0356493081333
blica ||| leaked ||| 0.0468950191412
emprender ||| attacking ||| 0.0395984945721
conjunto ||| changed ||| 0.037970781552
y ||| approaches ||| 0.0164084369017
seguridad ||| reinforcing ||| 0.0113835877321
india ||| determined ||| 0.0169930135349
si ||| migratory ||| 0.0534453582092
bur ||| reduced ||| 0.0127557049542
or ||| written ||| 0.0116920237352
homofobia ||| homophobia ||| 0.0311025537982
quince ||| provides ||| 0.0409395345684
tipo ||| firmly ||| 0.011871573153
un ||| globe ||| 0.0387378802517
elegir ||| mechanism ||| 0.0270234876049
personal ||| slaves ||| 0.0257092831835
adem ||| finalised ||| 0.013153321308
uni ||| eu ||| 0.0709829285914
efectivo ||| germany ||| 0.032642427499
abordar ||| governance ||| 0.013237276168
los ||| atat ||| 0.0152962229276
rostro ||| face ||| 0.0172919483663
y ||| murders ||| 0.0138028589771
cuesti ||| lobby ||| 0.0243615102762
caracterizan ||| intimately ||| 0.0299613271357
mismos ||| used ||| 0.0112486487732
quiere ||| takes ||| 0.0441524472289
por ||| clarity ||| 0.132743512127
como ||| verifying ||| 0.05316697394
a ||| surely ||| 0.0102603135771
no ||| nationality ||| 0.039377765655
punto ||| promotion ||| 0.0602899259915
presidentes ||| patently ||| 0.0106643720839
kosovo ||| depend ||| 0.101985415851
cabellos ||| dragged ||| 0.0815277668222
justicia ||| confusion ||| 0.0322053701308
n ||| collection ||| 0.194853407431
se ||| sovereignty ||| 0.0121761930288
asedio ||| romany ||| 0.0170682203082
civiles ||| roles ||| 0.0338072496953
el ||| proposed ||| 0.0508822479932
bienes ||| destruction ||| 0.041430785348
algunos ||| albania ||| 0.0526191071245
independientes ||| founding ||| 0.0726064427958
progresos ||| looks ||| 0.0758294739655
an ||| appear ||| 0.0558088054953
al ||| has ||| 0.0160533453576
naci ||| suspect ||| 0.0364760681118
responsable ||| responsible ||| 0.343834242779
secuestros ||| detentions ||| 0.0267359082937
n ||| population ||| 0.0565223660118
y ||| europe ||| 0.0170844102862
tica ||| division ||| 0.029377779959
pues ||| declare ||| 0.0354349981073
adoptar ||| intent ||| 0.062497565593
importe ||| period ||| 0.0865107681569
cola ||| scares ||| 0.0765707029177
han ||| objection ||| 0.0136386376875
colegas ||| sector ||| 0.033256805205
interconexi ||| turned ||| 0.0352059871789
candidato ||| geared ||| 0.0314123290964
per ||| covers ||| 0.0119613835393
uno ||| decent ||| 0.0355567159716
3 ||| 008 ||| 0.0192138887261
refuerzos ||| roles ||| 0.0226382770773
excesivamente ||| precautionary ||| 0.0671988037657
actual ||| twenty ||| 0.0135749670904
lugar ||| content ||| 0.0577844395865
le ||| attaches ||| 0.0363515102462
sus ||| begrudge ||| 0.0564077528806
las ||| like ||| 0.103554561697
o ||| down ||| 0.0116779475173
informe ||| l ||| 0.0294880907651
europa ||| day-to-day ||| 0.0260215500157
que ||| prepared ||| 0.0241016604352
todo ||| admissible ||| 0.033196496498
equilibrios ||| balance ||| 0.0332966207102
una ||| asylum-seekers ||| 0.0133366766646
los ||| even ||| 0.0170045460939
darnos ||| sufficiently ||| 0.0746643836412
publicaci ||| official ||| 0.0102008549857
muchas ||| jospin ||| 0.0622686180897
planteado ||| altogether ||| 0.0251514006006
hecho ||| ago ||| 0.0263134703978
lugar ||| arise ||| 0.0371454523255
evidencias ||| originally ||| 0.158933622204
debe ||| structure ||| 0.0242989235768
claro ||| definition ||| 0.198911553114
las ||| toughened ||| 0.0233433509871
normas ||| reasons ||| 0.0257068981435
capitales ||| laundering ||| 0.0110948348907
concretos ||| seeing ||| 0.0272051052283
influidas ||| pernicious ||| 0.100398940829
el ||| reference ||| 0.0658566668448
por ||| council' ||| 0.0336501093274
ya ||| racist ||| 0.018113649445
fiscal ||| liberal ||| 0.155013081022
sido ||| observations ||| 0.0146062188277
la ||| employees ||| 0.0145929385924
pitidito ||| blip ||| 0.0323256236963
abstuviera ||| liable ||| 0.0518047438454
ello ||| vote ||| 0.0586613254452
acerbo ||| earlier ||| 0.0347969391914
sus ||| terrorist ||| 0.0377396361511
nicos ||| destroyed ||| 0.0486684323429
1999 ||| southern ||| 0.0100625505511
sido ||| stedt ||| 0.0541472162759
libre ||| surely ||| 0.103871412973
art ||| rules ||| 0.01631174924
acojo ||| jewels ||| 0.05904284303
desnudas ||| surrounded ||| 0.168883931851
muy ||| children ||| 0.0435898891648
comienza ||| strengthened ||| 0.0680727678606
final ||| isabel ||| 0.0255910600474
ahora ||| conferences ||| 0.0686843526424
el ||| courage ||| 0.0120940809765
comisiones ||| procedures ||| 0.0219855760335
nos ||| invites ||| 0.0227736202521
les ||| circumstances ||| 0.037497111528
profesionales ||| stemming ||| 0.0579937806021
cual ||| bet ||| 0.0411887099238
n ||| debated ||| 0.0384603889259
texto ||| text ||| 0.306278695242
este ||| functions ||| 0.0181638557059
pie ||| canadian ||| 0.01294577259
parte ||| failure ||| 0.023064446444
demostrado ||| submit ||| 0.0247679314542
presenta ||| admissible ||| 0.0718304328125
punto ||| combat ||| 0.0128492186735
vi ||| improved ||| 0.0529877175548
serie ||| every ||| 0.0109784705843
familias ||| uphold ||| 0.066974960709
5 ||| zones ||| 0.0132067561777
conjunto ||| dimensions ||| 0.0963965342017
desde ||| six ||| 0.0178432669462
mujeres ||| somewhat ||| 0.0337437230774
urbano ||| communication ||| 0.0317437384437
a ||| joint ||| 0.0108945063379
es ||| deserve ||| 0.0140460144071
el ||| cardoso ||| 0.0476034987189
basta ||| illustration ||| 0.186227863183
encontrar ||| solution ||| 0.0192376242522
mediante ||| media-plus ||| 0.0228312763233
contenido ||| whatever ||| 0.190149376544
mejorar ||| spoken ||| 0.051841015429
que ||| last ||| 0.0888972315968
en ||| ironically ||| 0.0138085233118
verificar ||| looks ||| 0.0935848239222
su ||| colleagues ||| 0.112565702144
totalmente ||| taxes ||| 0.0209058732892
raz ||| g7 ||| 0.0244543466752
funcionamiento ||| foremost ||| 0.0256211363028
introducci ||| introduction ||| 0.0702392445877
asamblea ||| ambition ||| 0.013169167755
atribuir ||| raising ||| 0.0335893460119
hebreo ||| suffers ||| 0.0675903381404
el ||| fishing ||| 0.0657398238242
piden ||| asks ||| 0.0222456935055
n ||| caused ||| 0.0154764664987
mundo ||| lives ||| 0.0293124540409
secuestros ||| looting ||| 0.0455803258968
recortando ||| atat ||| 0.0425994346133
cter ||| sources ||| 0.0587366772254
vistas ||| traditional ||| 0.0127385539651
melod ||| election ||| 0.0147265319198
ofrecer ||| product ||| 0.0165112354894
embargo ||| customary ||| 0.0489819392738
han ||| education ||| 0.0162338749473
medio ||| trend ||| 0.0410182364182
s ||| experts ||| 0.0368389878545
intranquilos ||| intentions ||| 0.101551796165
se ||| strange ||| 0.0424646172512
mayor ||| greater ||| 0.40463612358
probablemente ||| conference' ||| 0.0232819187138
financiero ||| america ||| 0.0332746596708
tratarse ||| chapter ||| 0.0197817890073
m ||| asset ||| 0.0271481517512
lucha ||| against ||| 0.0147121567187
lugar ||| put ||| 0.0247666885138
creo ||| amongst ||| 0.0123189565892
hundir ||| cause ||| 0.0134724783486
paso ||| early ||| 0.174887361447
nuestra ||| far ||| 0.0248381499885
creo ||| firm ||| 0.0392049416483
ha ||| rise ||| 0.0149898573992
pues ||| remote ||| 0.0147417918186
bienestar ||| brought ||| 0.0230666282226
sta ||| spite ||| 0.0480055519077
ltimos ||| 30 ||| 0.0274506393625
uni ||| integrating ||| 0.0390136178562
en ||| over-centralisation ||| 0.013284167564
cus ||| mrs ||| 0.010027225742
las ||| envisaged ||| 0.0738986044637
portuguesa ||| crown ||| 0.0161124724602
estamos ||| unfortunately ||| 0.0170794694852
producir ||| caused ||| 0.0227164734221
tratos ||| unmic ||| 0.115370877015
sus ||| relevant ||| 0.0268935216849
econom ||| estimates ||| 0.0103044729322
hizo ||| nato's ||| 0.0302981044268
de ||| problems ||| 0.0781176083033
del ||| africa ||| 0.101190430989
tan ||| lowest ||| 0.0208185662236
especialmente ||| wealth ||| 0.0129674500385
su ||| assure ||| 0.0103169987982
realidad ||| reality ||| 0.468965795805
esta ||| plenary ||| 0.0248393156291
actividades ||| started ||| 0.0247430164441
pticos ||| get ||| 0.0225130094329
cuesti ||| film ||| 0.0323696269114
transacciones ||| thereby ||| 0.0237531423538
las ||| laws ||| 0.207829668533
espacio ||| kept ||| 0.0639788579775
del ||| 95 ||| 0.0547220044554
de ||| renovation ||| 0.0116739825895
fiscalizaci ||| feasible ||| 0.0378548136147
encaminadas ||| seizure ||| 0.0352774615139
conjunto ||| started ||| 0.0123317305039
hemos ||| outbreaks ||| 0.0292920315463
sociales ||| history ||| 0.0305442263507
debe ||| mind ||| 0.0104112179207
una ||| is ||| 0.0308350910466
debe ||| education ||| 0.0523678806568
funcionamiento ||| regards ||| 0.0495275524126
mico ||| orientation ||| 0.0629383952441
amos ||| fraud ||| 0.033916997602
punto ||| conservation ||| 0.0887736428897
modo ||| present ||| 0.0351552829618
da ||| coordinate ||| 0.010559408617
en ||| goes ||| 0.0234974386718
aumento ||| increase ||| 0.111650366464
penales ||| pilot ||| 0.0651415661223
tan ||| trying ||| 0.0206071458865
adoptada ||| lastly ||| 0.109460283156
generosa ||| bold ||| 0.051307244247
se ||| eurojust ||| 0.0195600357695
medidas ||| seizure ||| 0.012301308289
pensamiento ||| comes ||| 0.0457959545912
la ||| exclusion ||| 0.0589328834035
29 ||| bomb ||| 0.0259064937997
sistema ||| geneva ||| 0.0126576883075
flujo ||| reduce ||| 0.0429366908183
ricos ||| sends ||| 0.08095539504
ora ||| kuntz ||| 0.0582595323339
anual ||| drawn ||| 0.0167414102419
celta ||| daughters ||| 0.0169272081566
desarrollar ||| wait ||| 0.0159605303273
hasta ||| berlin ||| 0.0434390355977
el ||| soul ||| 0.155569274149
centrales ||| focal ||| 0.0524892210572
stas ||| degenerate ||| 0.102616489956
nucleares ||| prone ||| 0.0295626938743
contribuye ||| encouraging ||| 0.0145235126729
ese ||| establishment ||| 0.0160244189058
algunos ||| undeniable ||| 0.0134949694501
or ||| mexico ||| 0.0156209935428
conseguir ||| intensify ||| 0.0221173529456
especulaci ||| checking ||| 0.0145343852167
asaltaron ||| assaulted ||| 0.0152073280217
hace ||| slum ||| 0.0216287147083
formulada ||| h-0788 ||| 0.150525942099
realmente ||| discussing ||| 0.0242863709797
muchas ||| fruition ||| 0.0198948400107
pensando ||| documents ||| 0.0159579787894
capaces ||| 'let ||| 0.192309103004
gigantescas ||| repeating ||| 0.0194243549171
talante ||| climate ||| 0.0484456933239
muy ||| consciousness ||| 0.110914797133
m ||| low-flying ||| 0.0284677372879
podamos ||| acceptability ||| 0.0662702254176
amos ||| unfair ||| 0.0604123868705
introducci ||| suggested ||| 0.0226021660556
dicho ||| auspices ||| 0.0142476688459
dicho ||| earthquake-prone ||| 0.0310711668236
cumbre ||| summit ||| 0.477310442328
marcador ||| up-to-date ||| 0.11604091202
impuesto ||| mid-nineties ||| 0.0186764482447
tareas ||| officers ||| 0.186433063517
como ||| decided ||| 0.0144356377674
para ||| plans ||| 0.0235465457943
vea ||| tomorrow ||| 0.0203356134379
en ||| threatening ||| 0.0212989493237
gustar ||| factory-style ||| 0.0159453361069
este ||| differentiated ||| 0.0280727163629
ahora ||| emptied ||| 0.0429399774981
unos ||| similarly ||| 0.0861799322564
relativos ||| address ||| 0.0903920441138
provoc ||| cables ||| 0.0278766566764
elementos ||| body ||| 0.0718952957445
las ||| serb ||| 0.0369788012592
dejar ||| once ||| 0.0109560091619
menos ||| worried ||| 0.0114952394498
de ||| principle ||| 0.0589375470213
siguiente ||| implementation ||| 0.0141173007941
tratados ||| independent ||| 0.034939652274
pr ||| seconds ||| 0.0314142019746
posibilidad ||| turned ||| 0.0165981061472
trato ||| women ||| 0.0137190244021
violencia ||| somewhat ||| 0.0167304584708
para ||| some ||| 0.0427201460209
nos ||| voted ||| 0.0362629594763
marcha ||| launching ||| 0.231013428282
materias ||| approval ||| 0.0192782185453
debemos ||| coming ||| 0.0293581996152
vulnerable ||| persistence ||| 0.0411735214762
como ||| create ||| 0.0275377345771
desapareciendo ||| turkish ||| 0.0690524969074
las ||| feelings ||| 0.0435560720722
bajo ||| under ||| 0.0339424578715
-y ||| farm ||| 0.0219970994268
obra ||| modern-day ||| 0.0289722527741
debemos ||| east ||| 0.021486848433
elemento ||| portugal' ||| 0.093056040065
tercero ||| loopholes ||| 0.0279134290503
este ||| sort ||| 0.0287389963838
mundo ||| moved ||| 0.0680130183692
del ||| look ||| 0.0178612402696
inversores ||| investors ||| 0.0255153603529
ver ||| watching ||| 0.0435432973838
efectos ||| ionising ||| 0.0136605488584
que ||| used ||| 0.0565264018737
plenamente ||| partly ||| 0.0144673948553
tras ||| objections ||| 0.0647005270815
ninguno ||| odds ||| 0.0184236030666
profundizaci ||| officers ||| 0.0139754043575
ellos ||| factors ||| 0.0429648544942
prestar ||| enriching ||| 0.0123407598688
acciones ||| research ||| 0.0288759780664
probablemente ||| product ||| 0.0172094245244
su ||| gallagher' ||| 0.0432712575249
dichos ||| liberties ||| 0.0960448979492
nos ||| stated ||| 0.0560396660407
dicha ||| predict ||| 0.015320862916
presidenta ||| found ||| 0.0253751511212
p ||| gives ||| 0.0273837924063
pueda ||| knell ||| 0.0555140827274
esta ||| heartfelt ||| 0.0145453114528
pueden ||| founded ||| 0.10413678209
yo ||| phenomenon ||| 0.1418871055
siente ||| discrimination ||| 0.0332974593675
medir ||| hit ||| 0.0188546174041
un ||| missing ||| 0.0139373142212
siguiente ||| attached ||| 0.0125179542562
libertad ||| aptly ||| 0.0133867192452
car ||| generations ||| 0.0493078900884
hemos ||| mission ||| 0.17325195416
los ||| objectives ||| 0.0168589358093
de ||| communication ||| 0.0103922701288
problema ||| answered ||| 0.0145426004851
este ||| ideas ||| 0.0269061566573
fraternidad ||| hundred ||| 0.0182724814752
de ||| initiative ||| 0.0110410590068
este ||| claim ||| 0.0452076614391
finanzas ||| operating ||| 0.0462899828094
nuestra ||| language ||| 0.039947296537
especies ||| species ||| 0.237458878594
por ||| establishment ||| 0.0191875932691
es ||| farmers ||| 0.0433366693905
estrictamente ||| financing ||| 0.0132546000705
concede ||| thousands ||| 0.0477147223843
el ||| worthy ||| 0.014138715972
de ||| provisional ||| 0.031513075576
valdr ||| everywhere ||| 0.017311451402
albanokosovar ||| un ||| 0.0158464971118
y ||| mission ||| 0.0135893898564
federaci ||| organise ||| 0.0304698494756
pues ||| tack ||| 0.0286756867933
antepusieron ||| went ||| 0.097334872995
informaci ||| ratified ||| 0.0484905874775
r ||| request ||| 0.052974622666
la ||| opinion ||| 0.0364362253031
el ||| important ||| 0.0576777896721
verdad ||| honourable ||| 0.0888447508691
dicha ||| compatibility ||| 0.0945130760549
con ||| 47 ||| 0.0770703066523
hay ||| london ||| 0.060677072529
recientes ||| slice ||| 0.0208867366596
ndose ||| assumed ||| 0.039871414782
interpelado ||| questioned ||| 0.0757596010597
de ||| within ||| 0.142236786693
sido ||| describe ||| 0.0387335226444
garant ||| farmers' ||| 0.0285047823988
un ||| face ||| 0.0248814449939
tecnolog ||| technology ||| 0.0440452633948
puede ||| studies ||| 0.0157013126036
tarea ||| precisely ||| 0.0132808148205
los ||| among ||| 0.0571930445929
n ||| officials ||| 0.0393528371257
cuesti ||| obvious ||| 0.0250552216671
necesarias ||| vote ||| 0.0115478493932
tica ||| fears ||| 0.0135609139
estamos ||| whenever ||| 0.0117787491449
parte ||| sound ||| 0.0101060804803
terceros ||| nationals ||| 0.0220058576848
unos ||| throughout ||| 0.0343644741331
llegar ||| capable ||| 0.0114441048382
tnico ||| themselves ||| 0.0121578971343
estar ||| involved ||| 0.0219104303383
de ||| concerns ||| 0.0395945991716
crear ||| devoted ||| 0.0177069970966
efectivas ||| operations ||| 0.0739410535199
racistas ||| fighting ||| 0.0682729032455
sectores ||| lack ||| 0.0100736735548
han ||| outline ||| 0.0342207640803
or ||| said ||| 0.0112411811026
casos ||| consult ||| 0.0208639786605
tema ||| afforded ||| 0.0928588046527
no ||| increase ||| 0.0371764962265
sobre ||| held ||| 0.104681850087
fico ||| class ||| 0.0741481349561
al ||| ngl ||| 0.128748496807
pueden ||| depends ||| 0.0282644043557
reparto ||| distribution ||| 0.086534958081
creo ||| bombings ||| 0.0111096753635
alar ||| functioning ||| 0.173911013392
especuladores ||| planning ||| 0.0979325319156
cinco ||| incisive ||| 0.0125011399419
internacionales ||| farm ||| 0.0310220143537
es ||| saying ||| 0.0366150025243
ha ||| guardian ||| 0.0674145768855
capaces ||| suppose ||| 0.0767288994747
refleja ||| indicates ||| 0.131778271499
los ||| stance ||| 0.0136098960457
nuevo ||| innovative ||| 0.032271604182
sea ||| firmly ||| 0.0192542891757
vez ||| pernicious ||| 0.105190451428
es ||| length ||| 0.010480336141
n ||| responsibility ||| 0.0180642007706
orden ||| feature ||| 0.0145365810269
mo ||| drafts ||| 0.0419325938343
decirlo ||| task ||| 0.0104486587137
a ||| willing ||| 0.134711653606
alado ||| cover ||| 0.0837884280857
el ||| activities ||| 0.0295511580279
comercio ||| 350 ||| 0.0157068957475
en ||| dublin ||| 0.0123693769117
dejar ||| intensify ||| 0.0166742741952
tipo ||| scourge ||| 0.0309712911274
sepamos ||| rating ||| 0.229983563501
definitivamente ||| contribution ||| 0.0761538938891
ciudadanos ||| safe ||| 0.0547275543391
niveles ||| highest ||| 0.0286618019567
vulnerable ||| earthquake-prone ||| 0.0305305774184
ticos ||| reduced ||| 0.0103793828535
dentro ||| intimidation ||| 0.0281720895367
escena ||| admittedly ||| 0.0952907959269
materia ||| operation ||| 0.0154062506767
a ||| it ||| 0.0886523492307
tan ||| rehabilitation ||| 0.0239290963247
bien ||| room ||| 0.0791359675528
por ||| surrounded ||| 0.197187184294
n ||| increase ||| 0.06559606412
cter ||| officials ||| 0.0107922714951
portugal ||| portugal' ||| 0.0222537552481
-y ||| raises ||| 0.0645449686552
mbitos ||| wrought ||| 0.0185774912798
ante ||| often ||| 0.0115750806072
ven ||| violated ||| 0.0149837055035
reservas ||| atat ||| 0.0130489021805
vous ||| chose ||| 0.057001965364
apoyar ||| worthy ||| 0.0774731345415
asimismo ||| killings ||| 0.0182819230979
posible ||| coming ||| 0.0100576263222
celebraci ||| emphasise ||| 0.0221323649792
darle ||| homophobia ||| 0.0811511709321
socialmente ||| socially ||| 0.131001858643
final ||| arrested ||| 0.0479823253208
dif ||| fuelled ||| 0.0202164083568
or ||| allay ||| 0.0311054064776
proyectos ||| 'long-term ||| 0.0549173302499
legislatura ||| creation ||| 0.015825250215
trabajos ||| business ||| 0.136345669523
nuevos ||| covered ||| 0.0304151930946
qu ||| agency ||| 0.0170670246058
el ||| questions ||| 0.029550138853
durante ||| daughters ||| 0.0596546755305
es ||| secure ||| 0.0170316259526
trabajar ||| combination ||| 0.110415432418
la ||| light ||| 0.0183985492031
a ||| treaty ||| 0.0104937388846
basado ||| expected ||| 0.0282834222146
en ||| support ||| 0.051075612472
pnud ||| drinking ||| 0.02438076703
n ||| find ||| 0.0153956991216
signifique ||| beginning ||| 0.0249328846907
finales ||| network ||| 0.0170736115559
enriquecimiento ||| fears ||| 0.0131810006402
tecnolog ||| attempts ||| 0.0547306562535
apartado ||| reject ||| 0.0124862123256
gustar ||| farming ||| 0.0105536892142
debajo ||| below ||| 0.299715186371
intervenci ||| colleague' ||| 0.0252648640894
pregunta ||| 8 ||| 0.134427813685
frente ||| duty ||| 0.0243042082544
el ||| debate ||| 0.0324991041558
respecto ||| accessible ||| 0.0176424392815
cuesti ||| feature ||| 0.0310764912747
ratifican ||| ratify ||| 0.220407029321
necesarios ||| indicate ||| 0.0348689850351
fuese ||| corresponding ||| 0.0234664070036
fea ||| celtic ||| 0.0382057157636
luz ||| feeding ||| 0.0590107428714
ahora ||| forthwith ||| 0.0825480805521
conversaciones ||| family ||| 0.0199195560207
por ||| without ||| 0.0326600026109
segunda ||| seeing ||| 0.0470223491848
deben ||| needs ||| 0.064499767841
tico ||| exercise ||| 0.0140570385976
es ||| investors ||| 0.0107104926031
una ||| coming ||| 0.0128102422555
el ||| day ||| 0.0382462794513
para ||| popular ||| 0.0340508724224
en ||| bernard ||| 0.0113517456446
de ||| order ||| 0.0896876706876
independientes ||| believed ||| 0.0598091866293
actividad ||| accepts ||| 0.14100535405
l ||| entirety ||| 0.0815685739042
para ||| delighted ||| 0.0114758692424
veces ||| waters ||| 0.0487903432111
en ||| external ||| 0.0797105248379
decir ||| relationship ||| 0.0154076773103
armonizaci ||| direction ||| 0.0355523008945
avanzar ||| stand ||| 0.0468440419574
muy ||| private ||| 0.0185342699779
ocupamos ||| era ||| 0.0433051654616
una ||| nowadays ||| 0.0565371390852
o ||| or ||| 0.617437442378
cuanto ||| structure ||| 0.0110936922395
y ||| within ||| 0.0531493537611
smos ||| persistence ||| 0.020314956035
ya ||| rise ||| 0.0102316015012
ses ||| third ||| 0.0143038777048
y ||| synonym ||| 0.0243818175704
previa ||| pre-accession ||| 0.0158180718438
china ||| china ||| 0.0897536771625
nsula ||| north ||| 0.0645797067423
resulta ||| detention ||| 0.0294311363404
s ||| termed ||| 0.0324247274755
7 ||| route ||| 0.0254970600809
rrafo ||| lose ||| 0.0159779359467
claro ||| 'scoreboard' ||| 0.0303818695024
posible ||| mandate ||| 0.0100562724171
zona ||| exploration ||| 0.010140381022
se ||| causing ||| 0.0137202902208
unos ||| based ||| 0.0104349885483
gica ||| advocate ||| 0.08348437876
sorpresa ||| legislature ||| 0.0133969548927
particular ||| non-governmental ||| 0.059692850697
ya ||| criminalisation ||| 0.235348612015
escala ||| 24 ||| 0.0167549366709
esfera ||| raising ||| 0.0396612093887
porquer ||| brush ||| 0.181406642876
promover ||| reduction ||| 0.022906366703
quisiera ||| inform ||| 0.0945886723797
blanco ||| maria ||| 0.0426772565787
algunos ||| some ||| 0.26116749368
aqu ||| covering ||| 0.0232347068081
n ||| vigorously ||| 0.0305098136021
constituir ||| killings ||| 0.0229390288491
traducciones ||| completion ||| 0.115137230292
culo ||| foreseeable ||| 0.0197681769364
permitiera ||| administrative ||| 0.0676298354364
mejoras ||| provision ||| 0.0139059904564
cuando ||| early ||| 0.0201247123014
sentido ||| organise ||| 0.0182431755431
totalmente ||| billions ||| 0.0441797494572
ese ||| adjustments ||| 0.0481586800538
james ||| brake ||| 0.0557233514386
debilitan ||| strain ||| 0.104761046884
son ||| crop ||| 0.0483230540488
lenguaje ||| wto ||| 0.0308672512379
progresiva ||| adequate ||| 0.0511955691451
planteadas ||| unrealistic ||| 0.0372704922197
tenemos ||| demonstrated ||| 0.0106281205299
confusi ||| confusion ||| 0.593427776768
ya ||| several ||| 0.0210884487459
colaborar ||| imposed ||| 0.0807174424792
nueva ||| 70 ||| 0.130861528697
dichas ||| detail ||| 0.0696442399647
momento ||| undp ||| 0.0206363134253
diferentes ||| scenarios ||| 0.128218786636
su ||| problems ||| 0.0537329101475
deben ||| contexts ||| 0.0519211680765
punto ||| space ||| 0.0157666051437
acciones ||| lucrative ||| 0.202130149389
la ||| same ||| 0.0279485158909
millardo ||| nearly ||| 0.056212515941
modo ||| ascertaining ||| 0.0553149215221
podr ||| raises ||| 0.0608217742415
internacional- ||| objectively ||| 0.0101499441057
en ||| form ||| 0.0169722452592
ltimo ||| currencies ||| 0.0135917402743
n ||| hovers ||| 0.0269855697325
del ||| indicators ||| 0.0124627322065
un ||| appreciate ||| 0.0459128031881
escala ||| richter ||| 0.0126469759688
sida ||| conflict ||| 0.014193626834
al ||| aid ||| 0.0124659346318
es ||| often ||| 0.0235484110913
n ||| money ||| 0.079618181881
pa ||| delegating ||| 0.0516494422342
n ||| effort ||| 0.0183668220156
modo ||| chaos ||| 0.0137462720074
necesitan ||| citizenship ||| 0.0354899271396
eso ||| product ||| 0.0203256530549
albanesas ||| depends ||| 0.0432672698045
introducir ||| decide ||| 0.0219994736776
menos ||| motto ||| 0.0118683458187
portugal ||| cautious ||| 0.0390818498302
hay ||| preventing ||| 0.0347669552139
importe ||| eur ||| 0.189386597007
decir ||| begins ||| 0.0383204624846
de ||| saying ||| 0.107412194221
detenciones ||| taking-over ||| 0.0469958200555
tico ||| assuage ||| 0.116601486996
en ||| direction ||| 0.0511436889208
s ||| provides ||| 0.0151467504284
contravendr ||| indirect ||| 0.0376991593234
habl ||| value ||| 0.0307243265916
la ||| communitising ||| 0.0147851997556
buenas ||| among ||| 0.0178482634126
ejercicio ||| seminars ||| 0.0648831103873
comparto ||| derogate ||| 0.0496743283113
marco ||| doubts ||| 0.010428266483
a ||| perpetrate ||| 0.0314513844257
una ||| they ||| 0.0348198462669
en ||| harmful ||| 0.0121361768214
acordada ||| widen ||| 0.0179107590875
podr ||| presidencies ||| 0.0185636578248
provoc ||| car ||| 0.0177014963569
por ||| affected ||| 0.053619491396
ante ||| closer ||| 0.0108480659835
tramitaci ||| abuse ||| 0.0288094594562
londres ||| london ||| 0.22136118172
abandonar ||| abandoned ||| 0.0730219930507
decirle ||| dutch ||| 0.105853515008
pa ||| high-level ||| 0.0109437113056
desarroll ||| developed ||| 0.0318351887868
asignaci ||| classifying ||| 0.0704084236052
por ||| helm ||| 0.0291980670379
nuestra ||| prepared ||| 0.0453085949017
antes ||| minutes ||| 0.0556397251051
oculto ||| lobby ||| 0.0748454346747
haya ||| housing ||| 0.028472404457
dem ||| miserably ||| 0.0852774304272
medio ||| erdf ||| 0.0364585590172
d ||| continuity ||| 0.0270513342943
as ||| brazil ||| 0.0126446653929
desear ||| symbolic ||| 0.0662858063411
abstenerse ||| refrain ||| 0.0588321001525
con ||| powers ||| 0.0112265962921
particularmente ||| professional ||| 0.0395785720445
fundamentalmente ||| successfully ||| 0.0435167618972
le ||| schulz ||| 0.032073835067
carta ||| legally ||| 0.0112088834444
parte ||| supporting ||| 0.0211360468597
r ||| austria' ||| 0.0342472471789
sanitarias ||| drinking ||| 0.0731066810985
son ||| powers ||| 0.01066333162
movimientos ||| intended ||| 0.0132731458987
sencillamente ||| obtaining ||| 0.0603401568647
anteriores ||| quoted ||| 0.0118421643541
desterrar ||| judiciary ||| 0.0229104819351
compromiso ||| efa ||| 0.0465293530797
de ||| large ||| 0.0184255638276
cual ||| environmental ||| 0.0390859678853
doscientos ||| liberty ||| 0.0378829903999
potenciales ||| standard ||| 0.0123489933682
eso ||| defended ||| 0.0308914016592
global ||| effected ||| 0.060188745073
imagen ||| choice ||| 0.0326602336169
unas ||| routine ||| 0.0386884833447
39 ||| b5-0041 ||| 0.0255203429772
poner ||| coordinate ||| 0.0188985907646
llevar ||| proper ||| 0.0506503637343
una ||| last ||| 0.0175548909792
posible ||| application ||| 0.0120903509316
nico ||| geneva ||| 0.0364655020711
inmediato ||| impose ||| 0.0233475713852
lo ||| last ||| 0.0135111919028
como ||| remind ||| 0.0129591474697
demasiadas ||| tribunals ||| 0.063849423072
micos ||| impression ||| 0.141866266534
mandato ||| looks ||| 0.0781159347551
desarrollando ||| liaison ||| 0.0213196858397
por ||| charges ||| 0.0103354601765
muertes ||| property ||| 0.0189106974082
debo ||| definitely ||| 0.016073229947
cuesti ||| territory ||| 0.0118269643061
presidencias ||| presidencies ||| 0.031590277952
conduce ||| highly ||| 0.013593059888
evidente ||| constitution ||| 0.0231325316205
bien ||| concerned ||| 0.0180155027018
recibido ||| totalling ||| 0.0296031120758
voto ||| venture ||| 0.0351553753855
libertad ||| withdraw ||| 0.0118199588852
impulse ||| encourage ||| 0.0134848891226
a ||| ppe-de ||| 0.0119540662731
el ||| lives ||| 0.0308903981032
sospechar ||| b ||| 0.0146931078828
preciso ||| compensating ||| 0.173876849051
probablemente ||| likely ||| 0.0838501292332
nivel ||| solely ||| 0.0109345186236
deseable ||| amount ||| 0.0202378534861
esa ||| warning ||| 0.0263410135933
provocado ||| republicans ||| 0.0153927143215
p ||| accepts ||| 0.0438918307206
sj ||| stedt ||| 0.0447643595757
separa ||| executive ||| 0.128734281404
manera ||| legitimately ||| 0.0307466004558
de ||| ethics ||| 0.0311953169815
candidato ||| condition ||| 0.0413164461432
poner ||| campaign ||| 0.0130096228448
un ||| interinstitutional ||| 0.0442806522154
desafiar ||| challenge ||| 0.0146260712689
ni ||| partners ||| 0.190164970406
financiero ||| catastrophic ||| 0.0182950729518
lo ||| reconstruction ||| 0.0541705071771
resultado ||| colour ||| 0.0705294116768
n ||| terr ||| 0.0280967364464
porque ||| examining ||| 0.0323786484814
adopci ||| reasons ||| 0.0126932275725
precisamente ||| excessively ||| 0.0372710774717
decretos ||| introduce ||| 0.017369381289
nuestra ||| scope ||| 0.181720854743
n-estado ||| madrid ||| 0.024442680166
lleve ||| imposing ||| 0.0386517870124
a ||| 0 ||| 0.0552789389701
posici ||| cardoso ||| 0.0235055789359
efecto ||| standard ||| 0.0644122838523
y ||| royal ||| 0.0103629470828
incrementar ||| emphasise ||| 0.0126740327186
tema ||| heighten ||| 0.0714088150471
no ||| it ||| 0.0260602151951
impuestos ||| taxes ||| 0.0121028117304
moneda ||| collapse ||| 0.0313819211389
estado ||| breach ||| 0.0166005022368
de ||| inaugural ||| 0.0105720515356
as ||| slaves ||| 0.0223938558636
mundial ||| 500 ||| 0.0142974845199
parece ||| efficiently ||| 0.0624839498876
esta ||| few ||| 0.0266502279296
disposici ||| supporting ||| 0.0431403627719
que ||| needs ||| 0.025591101596
a ||| directions ||| 0.0104138635717
presa ||| repairing ||| 0.0313864828565
encuentros ||| organise ||| 0.0380730881289
esc ||| deploy ||| 0.0412817416347
profundizaci ||| extending ||| 0.0159888240591
reforzar ||| duplicitous ||| 0.178926026421
pr ||| scourge ||| 0.0216614880372
tejido ||| seeing ||| 0.0180394112383
tres ||| three-and-a-half ||| 0.0483145559989
v ||| compensation ||| 0.189571102248
es ||| here ||| 0.0140090472616
este ||| develop ||| 0.0210175270987
fuera ||| authorise ||| 0.0243616019626
rea ||| cooperate ||| 0.0450490621354
e ||| tiger ||| 0.0695957593781
de ||| capital ||| 0.0683725599816
rep ||| traitors ||| 0.0133020603947
mico ||| asset ||| 0.0149136621532
car ||| ugly ||| 0.017542742836
la ||| also ||| 0.013910094616
amplia ||| comprehensive ||| 0.01387399048
presidente ||| etc ||| 0.0113721654633
la ||| up-to-date ||| 0.0116726332602
eso ||| furthermore ||| 0.105626025131
las ||| manage ||| 0.0177418974084
momentos ||| moments ||| 0.0323101292316
celta ||| sons ||| 0.0721230101739
refiere ||| proximity ||| 0.0525239945054
esconden ||| previously ||| 0.02476635615
plantear ||| surely ||| 0.0263460302335
ese ||| credibility ||| 0.0462955513354
aplicar ||| imposing ||| 0.0195135817316
n ||| brussels ||| 0.0143081790462
mbito ||| imbalances ||| 0.0516750901216
estaban ||| dragged ||| 0.0814787921707
pobreza ||| sum ||| 0.0117106983
unidos ||| takes ||| 0.0477097855973
empleos ||| challenge ||| 0.0142588490271
lo ||| boetticher ||| 0.0163680805723
n ||| 80 ||| 0.0155437529404
que ||| portuguese ||| 0.0212610193636
perm ||| me ||| 0.0560383665274
conduce ||| administration ||| 0.0302422755372
tomado ||| join ||| 0.0137514221693
colegas ||| integrate ||| 0.0185908613773
sido ||| efficiency ||| 0.0201664343898
imagen ||| suffers ||| 0.0247871975347
su ||| saying ||| 0.0260523156261
espacio ||| diplomats ||| 0.030071681078
funciona ||| secretariat ||| 0.0367409958187
pasada ||| admittedly ||| 0.0405167469667
las ||| odysseus ||| 0.109418628547
podemos ||| experienced ||| 0.0642013896989
consejo ||| freedoms ||| 0.0178757838658
respecto ||| inevitably ||| 0.0202082754002
actualidad ||| exceptionally ||| 0.0315267397675
hace ||| private ||| 0.032414534526
lo ||| u ||| 0.0143373196009
a ||| funds ||| 0.0155062307783
rico ||| low-flying ||| 0.0428805772278
ante ||| used ||| 0.0133539307065
constituido ||| realise ||| 0.0199158859309
a ||| raise ||| 0.0817021277333
frente ||| southern ||| 0.0979177056973
supervisi ||| dissemination ||| 0.0199274075591
intentar ||| trying ||| 0.0895667761796
pueblos ||| commercial ||| 0.175740261194
de ||| scientific ||| 0.0859604354345
y ||| was ||| 0.0154003636817
nos ||| antonio ||| 0.0303776745854
turno ||| b5-0003 ||| 0.183204279135
conducido ||| experienced ||| 0.0203013787095
tanto ||| relevant ||| 0.0705213346221
el ||| relationship ||| 0.0792986433006
la ||| information ||| 0.0146502399837
y ||| greens ||| 0.0245251563976
ana ||| letting ||| 0.0126068368535
ste ||| image ||| 0.0366294988383
que ||| capacity ||| 0.0344467020221
tanto ||| 33 ||| 0.0106844869281
minucioso ||| divergence ||| 0.0326025295219
feliz ||| regulation ||| 0.0398922428501
par ||| believed ||| 0.022116376395
tambi ||| innovative ||| 0.0157053282052
esta ||| assets ||| 0.0370344784214
muchos ||| suspicions ||| 0.0293023877365
an ||| turkey's ||| 0.0231026182686
-puedo ||| assure ||| 0.0478665936542
73 ||| 73 ||| 0.251661571766
todo ||| come ||| 0.0267733454079
nuestro ||| reassure ||| 0.090488029176
otro ||| illustrated ||| 0.0672856771665
procede ||| subjects ||| 0.0216208474552
eficaces ||| undeniable ||| 0.101069672683
de ||| xenophobic ||| 0.0285011801859
imposible ||| preferable ||| 0.054015193846
peque ||| family-run ||| 0.054449759977
costero ||| coastal ||| 0.0384220199943
fuerza ||| values ||| 0.0143139563128
que ||| just ||| 0.210766394233
v ||| route ||| 0.129359806341
penal ||| multiplicity ||| 0.0287359689086
embargo ||| vienna ||| 0.0182834529591
contra ||| romanies ||| 0.178171656667
tambi ||| debates ||| 0.0516964298384
eurodac ||| refer ||| 0.0175497700666
heridas ||| 300 ||| 0.0844861292005
d ||| repeatedly ||| 0.239043550787
se ||| summit ||| 0.014051356818
abordadas ||| credible ||| 0.0133460219412
mejor ||| transparent ||| 0.0370321485745
que ||| should ||| 0.180183876516
tales ||| contributed ||| 0.0749288034807
hace ||| twenty ||| 0.0220315587237
medida ||| duty ||| 0.0185144203679
situaci ||| situation ||| 0.401401173905
sino ||| own ||| 0.0268482505885
cualquier ||| restrict ||| 0.0432629636508
el ||| as ||| 0.0778434899118
repercusiones ||| small ||| 0.0835215575335
principio ||| revenue ||| 0.0152258428656
planteamiento ||| beginning ||| 0.0238898059382
han ||| sales ||| 0.0139193133629
vaya ||| direction ||| 0.0473091792447
consultas ||| direct ||| 0.0235564237784
nico ||| supranational ||| 0.148440395298
importante- ||| membership ||| 0.0626444014943
enorme ||| much ||| 0.0209791782341
costero ||| communication ||| 0.0157452691053
estas ||| actively ||| 0.0258078257314
libre ||| constitution ||| 0.0221392088334
cuenta ||| added ||| 0.0109828655616
igualdad ||| until ||| 0.0101012634407
parte ||| expression ||| 0.0259369541243
cada ||| transformed ||| 0.0252992056513
segura ||| understanding ||| 0.130942281649
financieras ||| involve ||| 0.0210510020803
los ||| persecution ||| 0.344493721638
hizo ||| senior ||| 0.0411247997298
oradores ||| sales ||| 0.0110246972936
del ||| penalise ||| 0.012024295704
una ||| desirable ||| 0.0287074402019
aplicarlos ||| economically ||| 0.135231747142
legalicen ||| campaign ||| 0.0203779742682
para ||| ethnic ||| 0.0128398492762
formas ||| factor ||| 0.0747460265033
acogida ||| geneva ||| 0.0416280624091
pac ||| search ||| 0.0203465826853
de ||| regulation ||| 0.0350345810331
humano ||| reduction ||| 0.0247816299262
